{"learner":{"attributes":{"best_iteration":"19","best_score":"0.00019363226466764"},"feature_names":["Total_Length_of_Fwd_Packets","Flow_Packets_Sec","Fwd_Packet_Length_Max","Bwd_Header_Length","min_seg_size_forward","Max_Packet_Length","act_data_pkt_fwd","Flow_IAT_Min","Init_Win_bytes_backward","Total_Backward_Packets"],"feature_types":["int","float","int","float","float","float","float","float","float","int"],"gradient_booster":{"model":{"gbtree_model_param":{"num_parallel_tree":"1","num_trees":"90"},"iteration_indptr":[0,3,6,9,12,15,18,21,24,27,30,33,36,39,42,45,48,51,54,57,60,63,66,69,72,75,78,81,84,87,90],"tree_info":[0,1,2,0,1,2,0,1,2,0,1,2,0,1,2,0,1,2,0,1,2,0,1,2,0,1,2,0,1,2,0,1,2,0,1,2,0,1,2,0,1,2,0,1,2,0,1,2,0,1,2,0,1,2,0,1,2,0,1,2,0,1,2,0,1,2,0,1,2,0,1,2,0,1,2,0,1,2,0,1,2,0,1,2,0,1,2,0,1,2],"trees":[{"base_weights":[-2.3977475E-1,-7.499699E-1,1.4999118E-1,-7.4998714E-2,-2.5544848E-9],"categories":[],"categories_nodes":[],"categories_segments":[],"categories_sizes":[],"default_left":[0,0,0,0,0],"id":0,"left_children":[1,3,-1,-1,-1],"loss_changes":[6.655194E4,7.519531E-1,0E0,0E0,0E0],"parents":[2147483647,0,0,1,1],"right_children":[2,4,-1,-1,-1],"split_conditions":[2E1,1.5E1,1.4999118E-1,-7.4998714E-2,-2.5544848E-9],"split_indices":[4,6,0,0,0],"split_type":[0,0,0,0,0],"sum_hessian":[7.497911E4,5.7976887E4,1.700222E4,5.797555E4,1.3333333E0],"tree_param":{"num_deleted":"0","num_feature":"10","num_nodes":"5","size_leaf_vector":"1"}},{"base_weights":[4.7378784E-1,1.0543144E0,-6.3229686E-1,1.3950132E0,-7.499041E-2,-7.4752074E-1,-1.450274E-1,8.199377E-1,1.4999571E-1,-7.4894714E-1,-6.0800415E-1,1.3900167E0,-7.4978836E-2,1.4019419E0,-6.150462E-1,-7.49963E-2,-6.9951E-1,3.6144575E-1,-7.460504E-2,-7.3906004E-2,1.4988707E-1,1.4966662E-1,-7.2047925E-1,-6.8512183E-1,1.4750461E-1,-7.1087474E-1,8.1818186E-2,1.3953488E-1,-6.9767445E-2,-7.461051E-2,1.0344827E-1,5.871886E-2,-7.073805E-2,-4.1123603E-2,-7.4802466E-2],"categories":[],"categories_nodes":[],"categories_segments":[],"categories_sizes":[],"default_left":[0,0,0,0,0,0,0,0,0,0,0,0,0,0,0,0,0,0,0,0,0,0,0,0,0,0,0,0,0,0,0,0,0,0,0],"id":1,"left_children":[1,3,5,7,-1,9,11,13,-1,15,17,19,-1,21,23,-1,25,27,-1,-1,-1,-1,29,31,-1,33,-1,-1,-1,-1,-1,-1,-1,-1,-1],"loss_changes":[4.814626E4,3.0227164E4,1.448915E3,2.4950156E3,0E0,3.6992188E0,4.5842305E3,5.3337725E3,0E0,5.136719E-1,2.9251045E1,3.245652E2,0E0,9.144707E2,2.709773E2,0E0,8.011719E0,3.1269264E1,0E0,0E0,0E0,0E0,9.531456E0,5.0941284E1,0E0,4.457947E0,0E0,0E0,0E0,0E0,0E0,0E0,0E0,0E0,0E0],"parents":[2147483647,0,0,1,1,2,2,3,3,5,5,6,6,7,7,9,9,10,10,11,11,13,13,14,14,16,16,17,17,22,22,23,23,25,25],"right_children":[2,4,6,8,-1,10,12,14,-1,16,18,20,-1,22,24,-1,26,28,-1,-1,-1,-1,30,32,-1,34,-1,-1,-1,-1,-1,-1,-1,-1,-1],"split_conditions":[4E0,2E1,1.194E3,2.73E2,-7.499041E-2,1.16E3,1.5469878E1,4.17E2,1.4999571E-1,1.094E3,5E0,1.9E2,-7.4978836E-2,6E0,2.006267E6,-7.49963E-2,1.295E3,7.9452333E0,-7.460504E-2,-7.3906004E-2,1.4988707E-1,1.4966662E-1,1.9E2,9.866981E-2,1.4750461E-1,5E0,8.1818186E-2,1.3953488E-1,-6.9767445E-2,-7.461051E-2,1.0344827E-1,5.871886E-2,-7.073805E-2,-4.1123603E-2,-7.4802466E-2],"split_indices":[6,4,0,5,0,0,1,8,0,0,6,2,0,0,7,0,7,1,0,0,0,0,2,1,0,6,0,0,0,0,0,0,0,0,0],"split_type":[0,0,0,0,0,0,0,0,0,0,0,0,0,0,0,0,0,0,0,0,0,0,0,0,0,0,0,0,0,0,0,0,0,0,0],"sum_hessian":[7.497911E4,4.917155E4,2.5807555E4,4.1361332E4,7.8102217E3,2.0871555E4,4.9359995E3,6.384444E3,3.4976887E4,2.0655998E4,2.1555554E2,1.3946666E3,3.541333E3,4.542222E3,1.8422222E3,2.022622E4,4.2977774E2,2.6666664E1,1.8888887E2,6.755555E1,1.3271111E3,4.3484443E3,1.9377777E2,1.783111E3,5.9111107E1,4.2711108E2,2.6666665E0,1.3333332E1,1.3333332E1,1.9155554E2,2.222222E0,3.0222221E1,1.7528888E3,4.8444443E1,3.7866666E2],"tree_param":{"num_deleted":"0","num_feature":"10","num_nodes":"35","size_leaf_vector":"1"}},{"base_weights":[-2.3401321E-1,6.58702E-1,-7.499843E-2,1.4560523E0,-7.1884143E-1,-7.462522E-2,1.4815952E0,-7.4442047E-1,2.572167E-1,1.492428E0,-4.7958E-1,-1.6919744E-1,-7.473624E-1,1.3133274E0,-7.44361E-2,-5.309735E-1,1.4938271E0,1.300885E-1,-7.4103594E-2,-7.2490714E-2,5.8208954E-1,-6.35704E-1,-7.481677E-2,1.4870813E-1,-6.804124E-2,2.3999998E-2,-6.804124E-2,1.4967851E-1,1.122905E-1,1.1860465E-1,-4.4444453E-2,-6.735599E-2,8.571428E-2],"categories":[],"categories_nodes":[],"categories_segments":[],"categories_sizes":[],"default_left":[0,0,0,0,0,0,0,0,0,0,0,0,0,0,0,0,0,0,0,0,0,0,0,0,0,0,0,0,0,0,0,0,0],"id":2,"left_children":[1,3,-1,5,7,-1,9,11,13,15,17,19,21,23,-1,25,27,-1,-1,-1,29,31,-1,-1,-1,-1,-1,-1,-1,-1,-1,-1,-1],"loss_changes":[3.4537477E4,3.01672E4,0E0,9.796719E2,2.515918E2,0E0,3.660586E2,1.6478027E1,2.737665E2,4.920703E1,4.529119E1,2.1807106E1,4.0234375E-1,4.462224E1,0E0,1.609868E0,1.7070312E1,0E0,0E0,0E0,1.4373405E1,4.9037247E0,0E0,0E0,0E0,0E0,0E0,0E0,0E0,0E0,0E0,0E0,0E0],"parents":[2147483647,0,0,1,1,3,3,4,4,6,6,7,7,8,8,9,9,10,10,11,11,12,12,13,13,15,15,16,16,20,20,21,21],"right_children":[2,4,-1,6,8,-1,10,12,14,16,18,20,22,24,-1,26,28,-1,-1,-1,30,32,-1,-1,-1,-1,-1,-1,-1,-1,-1,-1,-1],"split_conditions":[2.73E2,1.0651717E0,-7.499843E-2,3.2E1,1.68E2,-7.462522E-2,2.006267E6,1.4438859E0,1.9E2,5.9369016E-2,2.4E2,3.2E1,2.143134E0,2.894356E3,-7.44361E-2,2.4E2,9.99401E5,1.300885E-1,-7.4103594E-2,-7.2490714E-2,7.22298E5,6E0,-7.481677E-2,1.4870813E-1,-6.804124E-2,2.3999998E-2,-6.804124E-2,1.4967851E-1,1.122905E-1,1.1860465E-1,-4.4444453E-2,-6.735599E-2,8.571428E-2],"split_indices":[5,1,0,3,2,0,7,1,2,1,8,3,1,1,0,8,7,0,0,0,7,0,0,0,0,0,0,0,0,0,0,0,0],"split_type":[0,0,0,0,0,0,0,0,0,0,0,0,0,0,0,0,0,0,0,0,0,0,0,0,0,0,0,0,0,0,0,0,0],"sum_hessian":[7.497911E4,2.746311E4,4.7515996E4,1.7394666E4,1.0068443E4,1.991111E2,1.7195555E4,9.811555E3,2.568889E2,1.7101332E4,9.422221E1,5.0222218E1,9.761333E3,1.2488888E2,1.3199998E2,1.1555555E1,1.7089777E4,1.1555555E1,8.2666664E1,2.8888887E1,2.1333332E1,7.555555E1,9.685777E3,1.1511111E2,9.777777E0,1.7777777E0,9.777777E0,1.6951555E4,1.3822221E2,1.3333332E1,7.9999995E0,7.422222E1,1.3333333E0],"tree_param":{"num_deleted":"0","num_feature":"10","num_nodes":"33","size_leaf_vector":"1"}},{"base_weights":[-2.2511081E-1,-7.2197855E-1,1.2985297E-1,-7.219959E-2,1.1140382E-4],"categories":[],"categories_nodes":[],"categories_segments":[],"categories_sizes":[],"default_left":[0,0,0,0,0],"id":3,"left_children":[1,3,-1,-1,-1],"loss_changes":[5.5774062E4,6.953125E-1,0E0,0E0,0E0],"parents":[2147483647,0,0,1,1],"right_children":[2,4,-1,-1,-1],"split_conditions":[2E1,1.5E1,1.2985297E-1,-7.219959E-2,1.1140382E-4],"split_indices":[4,6,0,0,0],"split_type":[0,0,0,0,0],"sum_hessian":[7.367087E4,5.555469E4,1.8116172E4,5.5553363E4,1.3306545E0],"tree_param":{"num_deleted":"0","num_feature":"10","num_nodes":"5","size_leaf_vector":"1"}},{"base_weights":[4.2989874E-1,9.3130964E-1,-6.051609E-1,1.2133578E0,-7.218835E-2,-7.195388E-1,-1.355294E-1,7.322567E-1,1.298486E-1,-7.20964E-1,-5.8110505E-1,1.2093064E0,-7.217883E-2,1.2190598E0,-5.874226E-1,-7.219858E-2,-6.713804E-1,3.3119327E-1,-7.181205E-2,-7.111958E-2,1.2976898E-1,1.2961398E-1,-6.9393384E-1,-6.5670335E-1,1.2805265E-1,-6.827584E-1,7.444716E-2,1.22078195E-1,-6.707623E-2,-7.1963504E-2,9.366708E-2,-6.701978E-2,1.3723277E-1,-3.876276E-2,-7.200622E-2],"categories":[],"categories_nodes":[],"categories_segments":[],"categories_sizes":[],"default_left":[0,0,0,0,0,0,0,0,0,0,0,0,0,0,0,0,0,0,0,0,0,0,0,0,0,0,0,0,0,0,0,0,0,0,0],"id":4,"left_children":[1,3,5,7,-1,9,11,13,-1,15,17,19,-1,21,23,-1,25,27,-1,-1,-1,-1,29,31,-1,33,-1,-1,-1,-1,-1,-1,-1,-1,-1],"loss_changes":[3.9560656E4,2.394448E4,1.336123E3,1.7956172E3,0E0,3.5283203E0,3.8429783E3,4.2389863E3,0E0,5.175781E-1,2.6362274E1,2.5210669E2,0E0,7.1159717E2,2.3100055E2,0E0,7.176941E0,2.5753275E1,0E0,0E0,0E0,0E0,8.524902E0,4.78927E1,0E0,4.2477264E0,0E0,0E0,0E0,0E0,0E0,0E0,0E0,0E0,0E0],"parents":[2147483647,0,0,1,1,2,2,3,3,5,5,6,6,7,7,9,9,10,10,11,11,13,13,14,14,16,16,17,17,22,22,23,23,25,25],"right_children":[2,4,6,8,-1,10,12,14,-1,16,18,20,-1,22,24,-1,26,28,-1,-1,-1,-1,30,32,-1,34,-1,-1,-1,-1,-1,-1,-1,-1,-1],"split_conditions":[4E0,2E1,1.194E3,2.73E2,-7.218835E-2,1.16E3,1.5469878E1,4.17E2,1.298486E-1,1.094E3,5E0,1.9E2,-7.217883E-2,6E0,2.006267E6,-7.219858E-2,1.295E3,7.9452333E0,-7.181205E-2,-7.111958E-2,1.2976898E-1,1.2961398E-1,1.9E2,1.9E2,1.2805265E-1,5E0,7.444716E-2,1.22078195E-1,-6.707623E-2,-7.1963504E-2,9.366708E-2,-6.701978E-2,1.3723277E-1,-3.876276E-2,-7.200622E-2],"split_indices":[6,4,0,5,0,0,1,8,0,0,6,2,0,0,7,0,7,1,0,0,0,0,2,2,0,6,0,0,0,0,0,0,0,0,0],"split_type":[0,0,0,0,0,0,0,0,0,0,0,0,0,0,0,0,0,0,0,0,0,0,0,0,0,0,0,0,0,0,0,0,0,0,0],"sum_hessian":[7.622413E4,5.134926E4,2.4874871E4,4.3865684E4,7.483575E3,2.0002713E4,4.8721587E3,6.59631E3,3.7269375E4,1.9794715E4,2.079973E2,1.4788107E3,3.3933481E3,4.8188203E3,1.7774897E3,1.938176E4,4.1295605E2,2.6974451E1,1.8102286E2,6.4752106E1,1.4140586E3,4.6324873E3,1.8633347E2,1.714547E3,6.2942757E1,4.1017758E2,2.778465E0,1.4172745E1,1.2801705E1,1.839921E2,2.3413627E0,1.7038846E3,1.0662348E1,4.7305824E1,3.6287177E2],"tree_param":{"num_deleted":"0","num_feature":"10","num_nodes":"35","size_leaf_vector":"1"}},{"base_weights":[-2.1962297E-1,5.925291E-1,-7.219795E-2,1.2629817E0,-6.90937E-1,-7.184155E-2,1.2836745E0,-7.164129E-1,2.3372975E-1,1.292412E0,-4.533502E-1,-1.5761594E-1,-7.193556E-1,1.1483791E0,-7.186695E-2,-5.073645E-1,1.293549E0,1.1738316E-1,-7.134243E-2,-6.974233E-2,5.2780116E-1,-6.08112E-1,-7.201632E-2,1.290699E-1,-6.539326E-2,2.2531264E-2,-6.555495E-2,1.2960283E-1,9.793493E-2,1.04426704E-1,-4.1934803E-2,-6.4593546E-2,7.881288E-2],"categories":[],"categories_nodes":[],"categories_segments":[],"categories_sizes":[],"default_left":[0,0,0,0,0,0,0,0,0,0,0,0,0,0,0,0,0,0,0,0,0,0,0,0,0,0,0,0,0,0,0,0,0],"id":5,"left_children":[1,3,-1,5,7,-1,9,11,13,15,17,19,21,23,-1,25,27,-1,-1,-1,29,31,-1,-1,-1,-1,-1,-1,-1,-1,-1,-1,-1],"loss_changes":[3.0066574E4,2.4235582E4,0E0,7.5943164E2,2.2783008E2,0E0,2.784746E2,1.5352539E1,2.2721306E2,3.793164E1,3.993093E1,1.9071558E1,4.0234375E-1,3.4947372E1,0E0,1.4742422E0,1.2910156E1,0E0,0E0,0E0,1.161096E1,4.4096107E0,0E0,0E0,0E0,0E0,0E0,0E0,0E0,0E0,0E0,0E0,0E0],"parents":[2147483647,0,0,1,1,3,3,4,4,6,6,7,7,8,8,9,9,10,10,11,11,12,12,13,13,15,15,16,16,20,20,21,21],"right_children":[2,4,-1,6,8,-1,10,12,14,16,18,20,22,24,-1,26,28,-1,-1,-1,30,32,-1,-1,-1,-1,-1,-1,-1,-1,-1,-1,-1],"split_conditions":[2.73E2,1.0651717E0,-7.219795E-2,3.2E1,1.68E2,-7.184155E-2,2.006267E6,1.4438859E0,1.9E2,5.9369016E-2,2.4E2,3.2E1,2.143134E0,2.894356E3,-7.186695E-2,2.4E2,9.99401E5,1.1738316E-1,-7.134243E-2,-6.974233E-2,7.22298E5,6E0,-7.201632E-2,1.290699E-1,-6.539326E-2,2.2531264E-2,-6.555495E-2,1.2960283E-1,9.793493E-2,1.04426704E-1,-4.1934803E-2,-6.4593546E-2,7.881288E-2],"split_indices":[5,1,0,3,2,0,7,1,2,1,8,3,1,1,0,8,7,0,0,0,7,0,0,0,0,0,0,0,0,0,0,0,0],"split_type":[0,0,0,0,0,0,0,0,0,0,0,0,0,0,0,0,0,0,0,0,0,0,0,0,0,0,0,0,0,0,0,0,0],"sum_hessian":[7.369235E4,2.816242E4,4.5529934E4,1.8498996E4,9.663425E3,1.9084926E2,1.8308146E4,9.404541E3,2.5888382E2,1.8216768E4,9.137857E1,4.9550816E1,9.35499E3,1.3195412E2,1.2692968E2,1.1218088E1,1.8205549E4,1.2108292E1,7.927028E1,2.7710001E1,2.1840816E1,7.2858696E1,9.282132E3,1.2256001E2,9.394107E0,1.7996279E0,9.41846E0,1.8059904E4,1.4564491E2,1.4067492E1,7.773325E0,7.146025E1,1.3984504E0],"tree_param":{"num_deleted":"0","num_feature":"10","num_nodes":"33","size_leaf_vector":"1"}},{"base_weights":[-2.1283233E-1,-6.9741774E-1,1.1525016E-1,-6.974354E-2,2.412997E-4],"categories":[],"categories_nodes":[],"categories_segments":[],"categories_sizes":[],"default_left":[0,0,0,0,0],"id":6,"left_children":[1,3,-1,-1,-1],"loss_changes":[4.746727E4,6.503906E-1,0E0,0E0,0E0],"parents":[2147483647,0,0,1,1],"right_children":[2,4,-1,-1,-1],"split_conditions":[2E1,1.5E1,1.1525016E-1,-6.974354E-2,2.412997E-4],"split_indices":[4,6,0,0,0],"split_type":[0,0,0,0,0],"sum_hessian":[7.174169E4,5.2949348E4,1.8792336E4,5.2948023E4,1.3258193E0],"tree_param":{"num_deleted":"0","num_feature":"10","num_nodes":"5","size_leaf_vector":"1"}},{"base_weights":[3.95327E-1,8.389127E-1,-5.815938E-1,1.0805212E0,-6.972973E-2,-6.949702E-1,-1.2763992E-1,6.649795E-1,1.15240656E-1,-6.9639206E-1,-5.576871E-1,1.07712E0,-6.972131E-2,1.0853322E0,-5.626477E-1,-6.9742866E-2,-6.462548E-1,3.065693E-1,-6.935615E-2,-6.86642E-2,1.1517741E-1,1.1506015E-1,-6.705958E-1,-6.3098025E-1,1.1383779E-1,-2.9139137E-1,-6.954975E-2,1.090276E-1,-6.466049E-2,-6.9637306E-2,8.560151E-2,6.380012E-2,-6.545474E-2,1.2560977E-1,-6.941423E-2],"categories":[],"categories_nodes":[],"categories_segments":[],"categories_sizes":[],"default_left":[0,0,0,0,0,0,0,0,0,0,0,0,0,0,0,0,0,0,0,0,0,0,0,0,0,0,0,0,0,0,0,0,0,0,0],"id":7,"left_children":[1,3,5,7,-1,9,11,13,-1,15,17,19,-1,21,23,-1,25,27,-1,-1,-1,-1,29,31,-1,33,-1,-1,-1,-1,-1,-1,-1,-1,-1],"loss_changes":[3.3070934E4,1.9480594E4,1.2264531E3,1.3539297E3,0E0,3.3339844E0,3.2696133E3,3.4532715E3,0E0,5.292969E-1,2.3756649E1,2.0219397E2,0E0,5.720322E2,1.99164E2,0E0,6.7143555E0,2.1570324E1,0E0,0E0,0E0,0E0,7.650627E0,4.952307E1,0E0,3.2007183E1,0E0,0E0,0E0,0E0,0E0,0E0,0E0,0E0,0E0],"parents":[2147483647,0,0,1,1,2,2,3,3,5,5,6,6,7,7,9,9,10,10,11,11,13,13,14,14,16,16,17,17,22,22,23,23,25,25],"right_children":[2,4,6,8,-1,10,12,14,-1,16,18,20,-1,22,24,-1,26,28,-1,-1,-1,-1,30,32,-1,34,-1,-1,-1,-1,-1,-1,-1,-1,-1],"split_conditions":[4E0,2E1,1.194E3,2.73E2,-6.972973E-2,1.16E3,1.5469878E1,4.17E2,1.15240656E-1,1.094E3,5E0,1.9E2,-6.972131E-2,6E0,2.006267E6,-6.9742866E-2,5E0,7.9452333E0,-6.935615E-2,-6.86642E-2,1.1517741E-1,1.1506015E-1,1.9E2,9.866981E-2,1.1383779E-1,5.537475E0,-6.954975E-2,1.090276E-1,-6.466049E-2,-6.9637306E-2,8.560151E-2,6.380012E-2,-6.545474E-2,1.2560977E-1,-6.941423E-2],"split_indices":[6,4,0,5,0,0,1,8,0,0,6,2,0,0,7,0,6,1,0,0,0,0,2,1,0,1,0,0,0,0,0,0,0,0,0],"split_type":[0,0,0,0,0,0,0,0,0,0,0,0,0,0,0,0,0,0,0,0,0,0,0,0,0,0,0,0,0,0,0,0,0,0,0],"sum_hessian":[7.6312805E4,5.2482477E4,2.3830326E4,4.5350277E4,7.132199E3,1.9067604E4,4.7627236E3,6.6897324E3,3.8660547E4,1.886811E4,1.9949359E2,1.5285812E3,3.2341426E3,4.983459E3,1.7062736E3,1.8473273E4,3.948367E2,2.6931852E1,1.7256174E2,6.1739475E1,1.4668417E3,4.8051904E3,1.7826819E2,1.640982E3,6.529147E1,4.8956104E1,3.4588058E2,1.4700861E1,1.2230991E1,1.7584288E2,2.4253101E0,2.9444706E1,1.6115374E3,9.672537E0,3.9283566E1],"tree_param":{"num_deleted":"0","num_feature":"10","num_nodes":"35","size_leaf_vector":"1"}},{"base_weights":[-2.0756494E-1,5.4116267E-1,-6.9740444E-2,1.1223309E0,-6.6643214E-1,-6.939243E-2,1.1397756E0,-6.917954E-1,2.170999E-1,1.1471163E0,-4.2985496E-1,-1.4753968E-1,-6.947408E-1,1.0267363E0,-6.9396965E-2,-4.8790598E-1,1.148084E0,1.07471995E-1,-6.8903655E-2,-6.730151E-2,4.832851E-1,-5.830494E-1,-6.9555774E-2,1.14780866E-1,-6.3001335E-2,2.1190643E-2,-6.352417E-2,1.1503207E-1,8.645899E-2,9.340108E-2,-3.9525993E-2,-6.208383E-2,7.2869845E-2],"categories":[],"categories_nodes":[],"categories_segments":[],"categories_sizes":[],"default_left":[0,0,0,0,0,0,0,0,0,0,0,0,0,0,0,0,0,0,0,0,0,0,0,0,0,0,0,0,0,0,0,0,0],"id":8,"left_children":[1,3,-1,5,7,-1,9,11,13,15,17,19,21,23,-1,25,27,-1,-1,-1,29,31,-1,-1,-1,-1,-1,-1,-1,-1,-1,-1,-1],"loss_changes":[2.6327441E4,1.9925402E4,0E0,6.0806445E2,2.0686621E2,0E0,2.1923633E2,1.4271973E1,1.9115408E2,3.046289E1,3.548526E1,1.6745827E1,4.0820312E-1,2.822403E1,0E0,1.3596249E0,1.0980469E1,0E0,0E0,0E0,9.513916E0,3.9692154E0,0E0,0E0,0E0,0E0,0E0,0E0,0E0,0E0,0E0,0E0,0E0],"parents":[2147483647,0,0,1,1,3,3,4,4,6,6,7,7,8,8,9,9,10,10,11,11,12,12,13,13,15,15,16,16,20,20,21,21],"right_children":[2,4,-1,6,8,-1,10,12,14,16,18,20,22,24,-1,26,28,-1,-1,-1,30,32,-1,-1,-1,-1,-1,-1,-1,-1,-1,-1,-1],"split_conditions":[2.73E2,1.0651717E0,-6.9740444E-2,3.2E1,1.68E2,-6.939243E-2,2.006267E6,1.4438859E0,1.9E2,5.9369016E-2,2.4E2,3.2E1,2.143134E0,2.894356E3,-6.9396965E-2,2.4E2,9.99401E5,1.07471995E-1,-6.8903655E-2,-6.730151E-2,7.22298E5,6E0,-6.9555774E-2,1.14780866E-1,-6.3001335E-2,2.1190643E-2,-6.352417E-2,1.1503207E-1,8.645899E-2,9.340108E-2,-3.9525993E-2,-6.208383E-2,7.2869845E-2],"split_indices":[5,1,0,3,2,0,7,1,2,1,8,3,1,1,0,8,7,0,0,0,7,0,0,0,0,0,0,0,0,0,0,0,0],"split_type":[0,0,0,0,0,0,0,0,0,0,0,0,0,0,0,0,0,0,0,0,0,0,0,0,0,0,0,0,0,0,0,0,0],"sum_hessian":[7.178252E4,2.8389148E4,4.339338E4,1.9165576E4,9.223572E3,1.8196054E2,1.8983615E4,8.966395E3,2.5717856E2,1.8895516E4,8.809865E1,4.8536705E1,8.917857E3,1.3610222E2,1.2107633E2,1.0880947E1,1.8884635E4,1.2483588E1,7.561506E1,2.644293E1,2.2093775E1,6.994711E1,8.84791E3,1.2711972E2,8.9825E0,1.8161893E0,9.064757E0,1.8733783E4,1.5085133E2,1.4560548E1,7.533227E0,6.850046E1,1.4466549E0],"tree_param":{"num_deleted":"0","num_feature":"10","num_nodes":"33","size_leaf_vector":"1"}},{"base_weights":[-2.0246364E-1,-6.75816E-1,1.0423275E-1,-6.75834E-2,3.8388922E-4],"categories":[],"categories_nodes":[],"categories_segments":[],"categories_sizes":[],"default_left":[0,0,0,0,0],"id":9,"left_children":[1,3,-1,-1,-1],"loss_changes":[4.0842832E4,6.152344E-1,0E0,0E0,0E0],"parents":[2147483647,0,0,1,1],"right_children":[2,4,-1,-1,-1],"split_conditions":[2E1,1.5E1,1.0423275E-1,-6.75834E-2,3.8388922E-4],"split_indices":[4,6,0,0,0],"split_type":[0,0,0,0,0],"sum_hessian":[6.9314016E4,5.021818E4,1.9095834E4,5.021686E4,1.3189638E0],"tree_param":{"num_deleted":"0","num_feature":"10","num_nodes":"5","size_leaf_vector":"1"}},{"base_weights":[3.6754104E-1,7.6734394E-1,-5.610587E-1,9.7968554E-1,-6.756734E-2,-6.733591E-1,-1.2101949E-1,6.1197525E-1,1.0422255E-1,-6.747765E-1,-5.3721786E-1,9.7676176E-1,-6.755943E-2,9.8381764E-1,-5.402791E-1,-6.758249E-2,-6.242027E-1,2.862326E-1,-6.719115E-2,-6.649338E-2,1.0416895E-1,1.0407412E-1,-6.5005803E-1,-6.075515E-1,1.03052594E-1,-2.7437538E-1,-6.7386575E-2,9.895185E-2,-6.2482156E-2,-6.759173E-2,7.886343E-2,6.1741587E-2,-6.316834E-2,1.1188191E-1,-6.7074314E-2],"categories":[],"categories_nodes":[],"categories_segments":[],"categories_sizes":[],"default_left":[0,0,0,0,0,0,0,0,0,0,0,0,0,0,0,0,0,0,0,0,0,0,0,0,0,0,0,0,0,0,0,0,0,0,0],"id":10,"left_children":[1,3,5,7,-1,9,11,13,-1,15,17,19,-1,21,23,-1,25,27,-1,-1,-1,-1,29,31,-1,33,-1,-1,-1,-1,-1,-1,-1,-1,-1],"loss_changes":[2.8006398E4,1.6158559E4,1.1218735E3,1.0564883E3,0E0,3.1289062E0,2.811711E3,2.8644634E3,0E0,5.2685547E-1,2.1408241E1,1.6592188E2,0E0,4.7071387E2,1.7302432E2,0E0,6.3574066E0,1.8296967E1,0E0,0E0,0E0,0E0,6.8859863E0,4.6654846E1,0E0,2.753312E1,0E0,0E0,0E0,0E0,0E0,0E0,0E0,0E0,0E0],"parents":[2147483647,0,0,1,1,2,2,3,3,5,5,6,6,7,7,9,9,10,10,11,11,13,13,14,14,16,16,17,17,22,22,23,23,25,25],"right_children":[2,4,6,8,-1,10,12,14,-1,16,18,20,-1,22,24,-1,26,28,-1,-1,-1,-1,30,32,-1,34,-1,-1,-1,-1,-1,-1,-1,-1,-1],"split_conditions":[4E0,2E1,1.194E3,2.73E2,-6.756734E-2,1.16E3,1.5469878E1,4.17E2,1.0422255E-1,1.094E3,5E0,1.9E2,-6.755943E-2,6E0,2.006267E6,-6.758249E-2,5E0,7.9452333E0,-6.719115E-2,-6.649338E-2,1.0416895E-1,1.0407412E-1,1.9E2,9.866981E-2,1.03052594E-1,5.537475E0,-6.7386575E-2,9.895185E-2,-6.2482156E-2,-6.759173E-2,7.886343E-2,6.1741587E-2,-6.316834E-2,1.1188191E-1,-6.7074314E-2],"split_indices":[6,4,0,5,0,0,1,8,0,0,6,2,0,0,7,0,6,1,0,0,0,0,2,1,0,1,0,0,0,0,0,0,0,0,0],"split_type":[0,0,0,0,0,0,0,0,0,0,0,0,0,0,0,0,0,0,0,0,0,0,0,0,0,0,0,0,0,0,0,0,0,0,0],"sum_hessian":[7.543454E4,5.2731492E4,2.2703045E4,4.596763E4,6.763866E3,1.8086695E4,4.6163506E3,6.6832915E3,3.9284336E4,1.789641E4,1.9028337E2,1.549115E3,3.0672358E3,5.0528423E3,1.6304495E3,1.7520842E4,3.7556827E2,2.6591421E1,1.6369194E2,5.858389E1,1.4905311E3,4.8830806E3,1.6976143E2,1.5640784E3,6.637111E1,4.750025E1,3.2806802E2,1.4958286E1,1.1633135E1,1.672848E2,2.4766169E0,2.9742085E1,1.5343363E3,1.0117064E1,3.7383186E1],"tree_param":{"num_deleted":"0","num_feature":"10","num_nodes":"35","size_leaf_vector":"1"}},{"base_weights":[-1.9736508E-1,5.003504E-1,-6.7578726E-2,1.0159262E0,-6.44908E-1,-6.723246E-2,1.0310726E0,-6.7010254E-1,2.0108396E-1,1.0374278E0,-4.0863383E-1,-1.387431E-1,-6.7305315E-1,9.3338066E-1,-6.741795E-2,-4.6755242E-1,1.0382745E0,9.960201E-2,-6.674462E-2,-6.5125994E-2,4.4598764E-1,-5.601611E-1,-6.7388594E-2,1.0392799E-1,-6.083032E-2,1.9963173E-2,-6.1447084E-2,9.1651805E-2,1.0428703E-1,8.455449E-2,-3.720631E-2,-5.9791256E-2,6.7716755E-2],"categories":[],"categories_nodes":[],"categories_segments":[],"categories_sizes":[],"default_left":[0,0,0,0,0,0,0,0,0,0,0,0,0,0,0,0,0,0,0,0,0,0,0,0,0,0,0,0,0,0,0,0,0],"id":11,"left_children":[1,3,-1,5,7,-1,9,11,13,15,17,19,21,23,-1,25,27,-1,-1,-1,29,31,-1,-1,-1,-1,-1,-1,-1,-1,-1,-1,-1],"loss_changes":[2.3157363E4,1.6663574E4,0E0,4.9829883E2,1.8686914E2,0E0,1.7689453E2,1.324585E1,1.6351715E2,2.4955078E1,3.1741055E1,1.4747835E1,4.177246E-1,2.3291023E1,0E0,1.2485712E0,9.783203E0,0E0,0E0,0E0,7.873865E0,3.5757809E0,0E0,0E0,0E0,0E0,0E0,0E0,0E0,0E0,0E0,0E0,0E0],"parents":[2147483647,0,0,1,1,3,3,4,4,6,6,7,7,8,8,9,9,10,10,11,11,12,12,13,13,15,15,16,16,20,20,21,21],"right_children":[2,4,-1,6,8,-1,10,12,14,16,18,20,22,24,-1,26,28,-1,-1,-1,30,32,-1,-1,-1,-1,-1,-1,-1,-1,-1,-1,-1],"split_conditions":[2.73E2,1.0651717E0,-6.7578726E-2,3.2E1,1.68E2,-6.723246E-2,2.006267E6,1.4438859E0,1.9E2,5.9369016E-2,2.4E2,3.2E1,2.143134E0,2.894356E3,-6.741795E-2,2.4E2,6E0,9.960201E-2,-6.674462E-2,-6.5125994E-2,7.22298E5,6E0,-6.7388594E-2,1.0392799E-1,-6.083032E-2,1.9963173E-2,-6.1447084E-2,9.1651805E-2,1.0428703E-1,8.455449E-2,-3.720631E-2,-5.9791256E-2,6.7716755E-2],"split_indices":[5,1,0,3,2,0,7,1,2,1,8,3,1,1,0,8,0,0,0,0,7,0,0,0,0,0,0,0,0,0,0,0,0],"split_type":[0,0,0,0,0,0,0,0,0,0,0,0,0,0,0,0,0,0,0,0,0,0,0,0,0,0,0,0,0,0,0,0,0],"sum_hessian":[6.937241E4,2.8218871E4,4.1153535E4,1.9458914E4,8.759958E3,1.7264037E2,1.9286273E4,8.506823E3,2.5313408E2,1.9201793E4,8.4481964E1,4.724203E1,8.459581E3,1.37787E2,1.15347084E2,1.0486278E1,1.9191307E4,1.2701051E1,7.1780914E1,2.5114971E1,2.2127062E1,6.688341E1,8.392698E3,1.292356E2,8.551405E0,1.8276736E0,8.658605E0,7.053387E2,1.8485967E4,1.48435E1,7.2835617E0,6.540466E1,1.4787514E0],"tree_param":{"num_deleted":"0","num_feature":"10","num_nodes":"33","size_leaf_vector":"1"}},{"base_weights":[-1.9364217E-1,-6.567812E-1,9.567357E-2,-6.567996E-2,5.3708337E-4],"categories":[],"categories_nodes":[],"categories_segments":[],"categories_sizes":[],"default_left":[0,0,0,0,0],"id":12,"left_children":[1,3,-1,-1,-1],"loss_changes":[3.543274E4,5.8203125E-1,0E0,0E0,0E0],"parents":[2147483647,0,0,1,1],"right_children":[2,4,-1,-1,-1],"split_conditions":[2E1,1.5E1,9.567357E-2,-6.567996E-2,5.3708337E-4],"split_indices":[4,6,0,0,0],"split_type":[0,0,0,0,0],"sum_hessian":[6.650259E4,4.7414195E4,1.9088398E4,4.7412887E4,1.3101705E0],"tree_param":{"num_deleted":"0","num_feature":"10","num_nodes":"5","size_leaf_vector":"1"}},{"base_weights":[3.4484866E-1,7.105509E-1,-5.430887E-1,9.009148E-1,-6.566182E-2,-6.542927E-1,-1.1541631E-1,5.691036E-1,9.566303E-2,-6.557051E-1,-5.192565E-1,8.984072E-1,-6.565397E-2,9.0455437E-1,-5.202601E-1,-6.567635E-2,-6.047631E-1,2.692166E-1,-6.527785E-2,-6.4565435E-2,9.561522E-2,9.553301E-2,-6.3191605E-1,-5.8636004E-1,9.463313E-2,-2.5966984E-1,-6.5477096E-2,9.097231E-2,-6.050853E-2,-6.5787055E-2,7.31637E-2,6.0005914E-2,-6.1118204E-2,1.0125083E-1,-6.499728E-2],"categories":[],"categories_nodes":[],"categories_segments":[],"categories_sizes":[],"default_left":[0,0,0,0,0,0,0,0,0,0,0,0,0,0,0,0,0,0,0,0,0,0,0,0,0,0,0,0,0,0,0,0,0,0,0],"id":13,"left_children":[1,3,5,7,-1,9,11,13,-1,15,17,19,-1,21,23,-1,25,27,-1,-1,-1,-1,29,31,-1,33,-1,-1,-1,-1,-1,-1,-1,-1,-1],"loss_changes":[2.3954873E4,1.3599271E4,1.02339453E3,8.473633E2,0E0,2.916504E0,2.4375706E3,2.4110303E3,0E0,5.136719E-1,1.9293E1,1.3848816E2,0E0,3.9410156E2,1.5117197E2,0E0,5.9832306E0,1.5673298E1,0E0,0E0,0E0,0E0,6.2129135E0,4.4166656E1,0E0,2.3889343E1,0E0,0E0,0E0,0E0,0E0,0E0,0E0,0E0,0E0],"parents":[2147483647,0,0,1,1,2,2,3,3,5,5,6,6,7,7,9,9,10,10,11,11,13,13,14,14,16,16,17,17,22,22,23,23,25,25],"right_children":[2,4,6,8,-1,10,12,14,-1,16,18,20,-1,22,24,-1,26,28,-1,-1,-1,-1,30,32,-1,34,-1,-1,-1,-1,-1,-1,-1,-1,-1],"split_conditions":[4E0,2E1,1.194E3,2.73E2,-6.566182E-2,1.16E3,1.5469878E1,4.17E2,9.566303E-2,1.094E3,5E0,1.9E2,-6.565397E-2,6E0,2.006267E6,-6.567635E-2,5E0,7.9452333E0,-6.527785E-2,-6.4565435E-2,9.561522E-2,9.553301E-2,1.9E2,9.866981E-2,9.463313E-2,5.537475E0,-6.5477096E-2,9.097231E-2,-6.050853E-2,-6.5787055E-2,7.31637E-2,6.0005914E-2,-6.1118204E-2,1.0125083E-1,-6.499728E-2],"split_indices":[6,4,0,5,0,0,1,8,0,0,6,2,0,0,7,0,6,1,0,0,0,0,2,1,0,1,0,0,0,0,0,0,0,0,0],"split_type":[0,0,0,0,0,0,0,0,0,0,0,0,0,0,0,0,0,0,0,0,0,0,0,0,0,0,0,0,0,0,0,0,0,0,0],"sum_hessian":[7.376851E4,5.224946E4,2.151905E4,4.5863758E4,6.385703E3,1.7077898E4,4.4411514E3,6.595539E3,3.926822E4,1.689731E4,1.8058755E2,1.5452964E3,2.895855E3,5.04285E3,1.5526891E3,1.6541754E4,3.5555847E2,2.6005259E1,1.545823E2,5.534081E1,1.4899556E3,4.8818965E3,1.6095398E2,1.486301E3,6.638804E1,4.578673E1,3.0977176E2,1.4986071E1,1.1019188E1,1.5845541E2,2.4985747E0,2.9983896E1,1.4563171E3,1.037515E1,3.5411583E1],"tree_param":{"num_deleted":"0","num_feature":"10","num_nodes":"35","size_leaf_vector":"1"}},{"base_weights":[-1.8867286E-1,4.6731442E-1,-6.567365E-2,9.330175E-1,-6.2593013E-1,-6.532342E-2,9.4646806E-1,-6.509435E-1,1.8753597E-1,9.520977E-1,-3.8930085E-1,-1.3096045E-1,-6.539028E-1,8.600263E-1,-6.5684624E-2,-4.485796E-1,9.528564E-1,9.326509E-2,-6.4828806E-2,-6.317975E-2,4.1434023E-1,-5.391238E-1,-6.547576E-2,9.546865E-2,-5.8849838E-2,1.8835453E-2,-5.9541862E-2,9.549323E-2,6.938054E-2,7.730066E-2,-3.4965735E-2,-5.7683367E-2,6.32154E-2],"categories":[],"categories_nodes":[],"categories_segments":[],"categories_sizes":[],"default_left":[0,0,0,0,0,0,0,0,0,0,0,0,0,0,0,0,0,0,0,0,0,0,0,0,0,0,0,0,0,0,0,0,0],"id":14,"left_children":[1,3,-1,5,7,-1,9,11,13,15,17,19,21,23,-1,25,27,-1,-1,-1,29,31,-1,-1,-1,-1,-1,-1,-1,-1,-1,-1,-1],"loss_changes":[2.0442602E4,1.411568E4,0E0,4.154453E2,1.6865259E2,0E0,1.4534766E2,1.2279541E1,1.4131001E2,2.0832031E1,2.8549675E1,1.3022538E1,4.309082E-1,1.9539902E1,0E0,1.1478345E0,9.654297E0,0E0,0E0,0E0,6.565406E0,3.2234497E0,0E0,0E0,0E0,0E0,0E0,0E0,0E0,0E0,0E0,0E0,0E0],"parents":[2147483647,0,0,1,1,3,3,4,4,6,6,7,7,8,8,9,9,10,10,11,11,12,12,13,13,15,15,16,16,20,20,21,21],"right_children":[2,4,-1,6,8,-1,10,12,14,16,18,20,22,24,-1,26,28,-1,-1,-1,30,32,-1,-1,-1,-1,-1,-1,-1,-1,-1,-1,-1],"split_conditions":[2.73E2,1.0651717E0,-6.567365E-2,3.2E1,1.68E2,-6.532342E-2,2.006267E6,1.4438859E0,1.9E2,5.9369016E-2,2.4E2,3.2E1,2.143134E0,2.894356E3,-6.5684624E-2,2.4E2,9.99401E5,9.326509E-2,-6.4828806E-2,-6.317975E-2,7.22298E5,6E0,-6.547576E-2,9.546865E-2,-5.8849838E-2,1.8835453E-2,-5.9541862E-2,9.549323E-2,6.938054E-2,7.730066E-2,-3.4965735E-2,-5.7683367E-2,6.32154E-2],"split_indices":[5,1,0,3,2,0,7,1,2,1,8,3,1,1,0,8,7,0,0,0,7,0,0,0,0,0,0,0,0,0,0,0,0],"split_type":[0,0,0,0,0,0,0,0,0,0,0,0,0,0,0,0,0,0,0,0,0,0,0,0,0,0,0,0,0,0,0,0,0],"sum_hessian":[6.657678E4,2.7723096E4,3.8853684E4,1.9441502E4,8.281593E3,1.6306801E2,1.9278434E4,8.0347314E3,2.4686101E2,1.9197812E4,8.06227E1,4.572443E1,7.9890073E3,1.3740732E2,1.0945368E2,1.0073671E1,1.9187738E4,1.2781383E1,6.7841324E1,2.3751238E1,2.1973192E1,6.3724556E1,7.9252827E3,1.2929866E2,8.108661E0,1.8343221E0,8.239349E0,1.9032541E4,1.5519733E2,1.4945218E1,7.027974E0,6.2228592E1,1.4959614E0],"tree_param":{"num_deleted":"0","num_feature":"10","num_nodes":"33","size_leaf_vector":"1"}},{"base_weights":[-1.8609023E-1,-6.3997895E-1,8.886988E-2,-6.3999794E-2,6.903894E-4],"categories":[],"categories_nodes":[],"categories_segments":[],"categories_sizes":[],"default_left":[0,0,0,0,0],"id":15,"left_children":[1,3,-1,-1,-1],"loss_changes":[3.0935436E4,5.5078125E-1,0E0,0E0,0E0],"parents":[2147483647,0,0,1,1],"right_children":[2,4,-1,-1,-1],"split_conditions":[2E1,1.5E1,8.886988E-2,-6.3999794E-2,6.903894E-4],"split_indices":[4,6,0,0,0],"split_type":[0,0,0,0,0],"sum_hessian":[6.3411605E4,4.4583973E4,1.8827629E4,4.4582676E4,1.2996919E0],"tree_param":{"num_deleted":"0","num_feature":"10","num_nodes":"5","size_leaf_vector":"1"}},{"base_weights":[3.2607082E-1,6.646881E-1,-5.2735776E-1,8.380855E-1,-6.397959E-2,-6.3747746E-1,-1.1064146E-1,5.342717E-1,8.885915E-2,-6.399522E-2,-5.602613E-1,8.358667E-1,-6.397151E-2,8.4127474E-1,-5.0163144E-1,-6.2723845E-2,-6.386637E-2,-6.2852904E-2,8.881473E-2,8.873977E-2,-6.159852E-1,7.481151E-1,-5.749512E-1,9.13501E-2,-6.342765E-2,-6.420445E-2,6.828477E-2,1.03858866E-1,-6.752717E-2,-5.9042137E-2,1.2114533E-1],"categories":[],"categories_nodes":[],"categories_segments":[],"categories_sizes":[],"default_left":[0,0,0,0,0,0,0,0,0,0,0,0,0,0,0,0,0,0,0,0,0,0,0,0,0,0,0,0,0,0,0],"id":16,"left_children":[1,3,5,7,-1,9,11,13,-1,-1,15,17,-1,19,21,23,-1,-1,-1,-1,25,27,29,-1,-1,-1,-1,-1,-1,-1,-1],"loss_changes":[2.0657336E4,1.1576307E4,9.317329E2,6.926699E2,0E0,2.7104492E0,2.1265803E3,2.0489917E3,0E0,0E0,1.972902E1,1.1713379E2,0E0,3.3454834E2,1.3542374E2,3.9691833E1,0E0,0E0,0E0,0E0,5.6184845E0,3.4636086E1,3.9188965E1,0E0,0E0,0E0,0E0,0E0,0E0,0E0,0E0],"parents":[2147483647,0,0,1,1,2,2,3,3,5,5,6,6,7,7,10,10,11,11,13,13,14,14,15,15,20,20,21,21,22,22],"right_children":[2,4,6,8,-1,10,12,14,-1,-1,16,18,-1,20,22,24,-1,-1,-1,-1,26,28,30,-1,-1,-1,-1,-1,-1,-1,-1],"split_conditions":[4E0,2E1,1.194E3,2.73E2,-6.397959E-2,1.094E3,1.5469878E1,4.17E2,8.885915E-2,-6.399522E-2,5E0,1.9E2,-6.397151E-2,6E0,1.0165547E-1,7.9452333E0,-6.386637E-2,-6.2852904E-2,8.881473E-2,8.873977E-2,1.9E2,6E0,1.9E2,9.13501E-2,-6.342765E-2,-6.420445E-2,6.828477E-2,1.03858866E-1,-6.752717E-2,-5.9042137E-2,1.2114533E-1],"split_indices":[6,4,0,5,0,0,1,8,0,0,6,2,0,0,1,1,0,0,0,0,2,0,2,0,0,0,0,0,0,0,0],"split_type":[0,0,0,0,0,0,0,0,0,0,0,0,0,0,0,0,0,0,0,0,0,0,0,0,0,0,0,0,0,0,0],"sum_hessian":[7.148001E4,5.117527E4,2.0304738E4,4.5171277E4,6.003993E3,1.6060205E4,4.244532E3,6.4405283E3,3.8730746E4,1.5554411E4,5.0579407E2,1.52168E3,2.7228523E3,4.9682983E3,1.4722302E3,6.909848E1,4.366956E2,5.2073097E1,1.4696069E3,4.816253E3,1.5204536E2,8.107583E1,1.3911544E3,2.5295284E1,4.3803196E1,1.4955052E2,2.494842E0,6.755922E1,1.3516613E1,1.3798743E3,1.1280189E1],"tree_param":{"num_deleted":"0","num_feature":"10","num_nodes":"31","size_leaf_vector":"1"}},{"base_weights":[-1.8121678E-1,4.401677E-1,-6.399176E-2,8.6693984E-1,-6.091563E-1,-6.363258E-2,8.790986E-1,-6.339847E-1,1.7588897E-1,8.8417614E-1,-3.7152663E-1,-1.2401536E-1,-6.3695663E-1,8.011604E-1,-6.4167626E-2,-4.3081772E-1,8.8486916E-1,8.810621E-2,-6.312457E-2,-6.1431665E-2,3.871084E-1,-5.1966035E-1,-6.378393E-2,8.87243E-2,-5.7033163E-2,1.7795874E-2,-5.778566E-2,8.869197E-2,6.322476E-2,7.1229644E-2,-3.279545E-2,-5.573223E-2,5.9253242E-2],"categories":[],"categories_nodes":[],"categories_segments":[],"categories_sizes":[],"default_left":[0,0,0,0,0,0,0,0,0,0,0,0,0,0,0,0,0,0,0,0,0,0,0,0,0,0,0,0,0,0,0,0,0],"id":17,"left_children":[1,3,-1,5,7,-1,9,11,13,15,17,19,21,23,-1,25,27,-1,-1,-1,29,31,-1,-1,-1,-1,-1,-1,-1,-1,-1,-1,-1],"loss_changes":[1.809988E4,1.2077711E4,0E0,3.5098145E2,1.5210205E2,0E0,1.2109766E2,1.1377686E1,1.2312115E2,1.7641602E1,2.5803337E1,1.1524665E1,4.4628906E-1,1.66035E1,0E0,1.0561373E0,9.246094E0,0E0,0E0,0E0,5.5037646E0,2.9072304E0,0E0,0E0,0E0,0E0,0E0,0E0,0E0,0E0,0E0,0E0,0E0],"parents":[2147483647,0,0,1,1,3,3,4,4,6,6,7,7,8,8,9,9,10,10,11,11,12,12,13,13,15,15,16,16,20,20,21,21],"right_children":[2,4,-1,6,8,-1,10,12,14,16,18,20,22,24,-1,26,28,-1,-1,-1,30,32,-1,-1,-1,-1,-1,-1,-1,-1,-1,-1,-1],"split_conditions":[2.73E2,1.0651717E0,-6.399176E-2,3.2E1,1.68E2,-6.363258E-2,2.006267E6,1.4438859E0,1.9E2,5.9369016E-2,2.4E2,3.2E1,2.143134E0,2.894356E3,-6.4167626E-2,2.4E2,9.99401E5,8.810621E-2,-6.312457E-2,-6.1431665E-2,7.22298E5,6E0,-6.378393E-2,8.87243E-2,-5.7033163E-2,1.7795874E-2,-5.778566E-2,8.869197E-2,6.322476E-2,7.1229644E-2,-3.279545E-2,-5.573223E-2,5.9253242E-2],"split_indices":[5,1,0,3,2,0,7,1,2,1,8,3,1,1,0,8,7,0,0,0,7,0,0,0,0,0,0,0,0,0,0,0,0],"split_type":[0,0,0,0,0,0,0,0,0,0,0,0,0,0,0,0,0,0,0,0,0,0,0,0,0,0,0,0,0,0,0,0,0],"sum_hessian":[6.3499766E4,2.6967697E4,3.6532066E4,1.9170861E4,7.7968364E3,1.5340231E2,1.9017459E4,7.5579946E3,2.3884163E2,1.8940852E4,7.66069E1,4.40385E1,7.513956E3,1.3534798E2,1.0349365E2,9.649786E0,1.8931203E4,1.2745376E1,6.3861526E1,2.2374046E1,2.1664455E1,6.0522125E1,7.453434E3,1.2768671E2,7.6612606E0,1.8363924E0,7.813393E0,1.8776281E4,1.5492122E2,1.4894689E1,6.7697663E0,5.902236E1,1.4997642E0],"tree_param":{"num_deleted":"0","num_feature":"10","num_nodes":"33","size_leaf_vector":"1"}},{"base_weights":[-1.7958878E-1,-6.2511873E-1,8.336147E-2,-6.251385E-2,8.4324554E-4],"categories":[],"categories_nodes":[],"categories_segments":[],"categories_sizes":[],"default_left":[0,0,0,0,0],"id":18,"left_children":[1,3,-1,-1,-1],"loss_changes":[2.7145871E4,5.283203E-1,0E0,0E0,0E0],"parents":[2147483647,0,0,1,1],"right_children":[2,4,-1,-1,-1],"split_conditions":[2E1,1.5E1,8.336147E-2,-6.251385E-2,8.4324554E-4],"split_indices":[4,6,0,0,0],"split_type":[0,0,0,0,0],"sum_hessian":[6.0133246E4,4.176747E4,1.8365777E4,4.176618E4,1.2876077E0],"tree_param":{"num_deleted":"0","num_feature":"10","num_nodes":"5","size_leaf_vector":"1"}},{"base_weights":[3.103575E-1,6.270516E-1,-5.135365E-1,7.870394E-1,-6.2491905E-2,-6.2260836E-1,-1.06546305E-1,5.053618E-1,8.335079E-2,-6.25084E-2,-5.455425E-1,7.850658E-1,-6.248338E-2,7.898514E-1,-4.8427844E-1,-5.9263E-2,-6.2372614E-2,-6.132443E-2,8.330814E-2,8.323635E-1,-6.019466E-1,7.1267176E-1,-5.57321E-1,8.513492E-2,-6.1800238E-2,8.332249E-2,6.884841E-2,-6.281247E-2,6.40611E-2,9.82121E-2,-6.503865E-2,-5.7602167E-2,8.405602E-2],"categories":[],"categories_nodes":[],"categories_segments":[],"categories_sizes":[],"default_left":[0,0,0,0,0,0,0,0,0,0,0,0,0,0,0,0,0,0,0,0,0,0,0,0,0,0,0,0,0,0,0,0,0],"id":19,"left_children":[1,3,5,7,-1,9,11,13,-1,-1,15,17,-1,19,21,23,-1,-1,-1,25,27,29,31,-1,-1,-1,-1,-1,-1,-1,-1,-1,-1],"loss_changes":[1.793066E4,9.943199E3,8.4696094E2,5.7569727E2,0E0,2.5297852E0,1.8646718E3,1.7559294E3,0E0,0E0,1.8067505E1,1.0010632E2,0E0,2.8708643E2,1.2217465E2,3.4647182E1,0E0,0E0,0E0,9.033203E-3,5.0909767E0,3.0222511E1,3.4816498E1,0E0,0E0,0E0,0E0,0E0,0E0,0E0,0E0,0E0,0E0],"parents":[2147483647,0,0,1,1,2,2,3,3,5,5,6,6,7,7,10,10,11,11,13,13,14,14,15,15,19,19,20,20,21,21,22,22],"right_children":[2,4,6,8,-1,10,12,14,-1,-1,16,18,-1,20,22,24,-1,-1,-1,26,28,30,32,-1,-1,-1,-1,-1,-1,-1,-1,-1,-1],"split_conditions":[4E0,2E1,1.194E3,2.73E2,-6.2491905E-2,1.094E3,1.5469878E1,4.17E2,8.335079E-2,-6.25084E-2,5E0,1.9E2,-6.248338E-2,6E0,1.0165547E-1,7.9452333E0,-6.2372614E-2,-6.132443E-2,8.330814E-2,9.916091E6,1.9E2,6E0,2.006267E6,8.513492E-2,-6.1800238E-2,8.332249E-2,6.884841E-2,-6.281247E-2,6.40611E-2,9.82121E-2,-6.503865E-2,-5.7602167E-2,8.405602E-2],"split_indices":[6,4,0,5,0,0,1,8,0,0,6,2,0,0,1,1,0,0,0,7,2,0,7,0,0,0,0,0,0,0,0,0,0],"split_type":[0,0,0,0,0,0,0,0,0,0,0,0,0,0,0,0,0,0,0,0,0,0,0,0,0,0,0,0,0,0,0,0,0],"sum_hessian":[6.8718055E4,4.9638074E4,1.9079984E4,4.4013953E4,5.624118E3,1.5046934E4,4.0330513E3,6.2344614E3,3.7779492E4,1.4571739E4,4.751936E2,1.4823844E3,2.5506667E3,4.842578E3,1.3918834E3,6.6062485E1,4.091311E2,4.882185E1,1.4335626E3,4.6994375E3,1.4314084E2,7.954935E1,1.312334E3,2.4921947E1,4.1140537E1,4.666707E3,3.27303E1,1.4067166E2,2.4691732E0,6.6652885E1,1.2896461E1,1.2955897E3,1.6744324E1],"tree_param":{"num_deleted":"0","num_feature":"10","num_nodes":"33","size_leaf_vector":"1"}},{"base_weights":[-1.7478366E-1,4.1757447E-1,-6.250439E-2,8.1325656E-1,-5.942576E-1,-6.2131714E-2,8.244051E-1,-6.1893934E-1,1.6822223E-1,8.2909507E-1,-3.5841E-1,-1.1775558E-1,-6.2192833E-1,7.5314337E-1,-6.259268E-2,2.290849E-1,8.305482E-1,8.386979E-2,-6.1808873E-2,-5.9854563E-2,3.6339122E-1,-5.015251E-1,-6.2284466E-2,8.325246E-2,-5.535673E-2,-7.554758E-2,8.13958E-2,8.312129E-2,1.8605517E-2,6.605794E-2,-3.0687783E-2,-5.3912975E-2,5.5738654E-2],"categories":[],"categories_nodes":[],"categories_segments":[],"categories_sizes":[],"default_left":[0,0,0,0,0,0,0,0,0,0,0,0,0,0,0,0,0,0,0,0,0,0,0,0,0,0,0,0,0,0,0,0,0],"id":20,"left_children":[1,3,-1,5,7,-1,9,11,13,15,17,19,21,23,-1,25,27,-1,-1,-1,29,31,-1,-1,-1,-1,-1,-1,-1,-1,-1,-1,-1],"loss_changes":[1.6065774E4,1.0415256E4,0E0,2.9960156E2,1.3773877E2,0E0,1.03240234E2,1.0539795E1,1.0735747E2,1.5926758E1,2.3518803E1,1.0218747E1,4.645996E-1,1.42526245E1,0E0,2.7126217E1,7.743164E0,0E0,0E0,0E0,4.6310415E0,2.62284E0,0E0,0E0,0E0,0E0,0E0,0E0,0E0,0E0,0E0,0E0,0E0],"parents":[2147483647,0,0,1,1,3,3,4,4,6,6,7,7,8,8,9,9,10,10,11,11,12,12,13,13,15,15,16,16,20,20,21,21],"right_children":[2,4,-1,6,8,-1,10,12,14,16,18,20,22,24,-1,26,28,-1,-1,-1,30,32,-1,-1,-1,-1,-1,-1,-1,-1,-1,-1,-1],"split_conditions":[2.73E2,1.0651717E0,-6.250439E-2,3.2E1,1.68E2,-6.2131714E-2,2.006267E6,1.4438859E0,1.9E2,8.151034E-2,2.4E2,3.2E1,2.143134E0,2.894356E3,-6.259268E-2,6E0,4.4E1,8.386979E-2,-6.1808873E-2,-5.9854563E-2,7.22298E5,6E0,-6.2284466E-2,8.325246E-2,-5.535673E-2,-7.554758E-2,8.13958E-2,8.312129E-2,1.8605517E-2,6.605794E-2,-3.0687783E-2,-5.3912975E-2,5.5738654E-2],"split_indices":[5,1,0,3,2,0,7,1,2,1,8,3,1,1,0,0,3,0,0,0,7,0,0,0,0,0,0,0,0,0,0,0,0],"split_type":[0,0,0,0,0,0,0,0,0,0,0,0,0,0,0,0,0,0,0,0,0,0,0,0,0,0,0,0,0,0,0,0,0],"sum_hessian":[6.0233695E4,2.601227E4,3.4221426E4,1.8699809E4,7.31246E3,1.4377934E2,1.855603E4,7.0833574E3,2.291027E2,1.8483041E4,7.298879E1,4.2233543E1,7.0411235E3,1.3196043E2,9.7142265E1,4.5039097E1,1.8438002E4,1.2613114E1,6.0375675E1,2.1002558E1,2.1230984E1,5.7320778E1,6.9838027E3,1.24745186E2,7.2152486E0,1.667579E1,2.8363304E1,1.8418719E4,1.928405E1,1.4719163E1,6.5118213E0,5.582901E1,1.4917679E0],"tree_param":{"num_deleted":"0","num_feature":"10","num_nodes":"33","size_leaf_vector":"1"}},{"base_weights":[-1.7396264E-1,-6.11956E-1,7.883467E-2,-6.1197657E-2,9.920736E-4],"categories":[],"categories_nodes":[],"categories_segments":[],"categories_sizes":[],"default_left":[0,0,0,0,0],"id":21,"left_children":[1,3,-1,-1,-1],"loss_changes":[2.391873E4,5.048828E-1,0E0,0E0,0E0],"parents":[2147483647,0,0,1,1],"right_children":[2,4,-1,-1,-1],"split_conditions":[2E1,1.5E1,7.883467E-2,-6.1197657E-2,9.920736E-4],"split_indices":[4,6,0,0,0],"split_type":[0,0,0,0,0],"sum_hessian":[5.674656E4,3.8997348E4,1.7749209E4,3.8996074E4,1.2740611E0],"tree_param":{"num_deleted":"0","num_feature":"10","num_nodes":"5","size_leaf_vector":"1"}},{"base_weights":[2.9708976E-1,5.9579873E-1,-5.013684E-1,7.449989E-1,-6.1174084E-2,-6.09441E-1,-1.0301505E-1,4.8126307E-1,7.8824125E-2,-6.1191674E-2,-5.3251666E-1,7.431999E-1,-6.1164916E-2,7.4733937E-1,-4.6841204E-1,-5.6258805E-2,-6.1047625E-2,-5.9955955E-2,7.878211E-2,7.870635E-1,-5.8985996E-1,6.783151E-1,-5.410914E-1,8.001529E-2,-6.03427E-2,7.879066E-2,6.473216E-2,-6.1613675E-2,6.0365316E-2,9.289891E-2,-6.281402E-2,-5.5756856E-2,1.0920973E-1],"categories":[],"categories_nodes":[],"categories_segments":[],"categories_sizes":[],"default_left":[0,0,0,0,0,0,0,0,0,0,0,0,0,0,0,0,0,0,0,0,0,0,0,0,0,0,0,0,0,0,0,0,0],"id":22,"left_children":[1,3,5,7,-1,9,11,13,-1,-1,15,17,-1,19,21,23,-1,-1,-1,25,27,29,31,-1,-1,-1,-1,-1,-1,-1,-1,-1,-1],"loss_changes":[1.5649307E4,8.603262E3,7.689951E2,4.843047E2,0E0,2.350586E0,1.6417914E3,1.5137341E3,0E0,0E0,1.6519096E1,8.627527E1,0E0,2.4899731E2,1.09662994E2,3.0386974E1,0E0,0E0,0E0,2.5390625E-2,4.6231346E0,2.6326462E1,3.3810516E1,0E0,0E0,0E0,0E0,0E0,0E0,0E0,0E0,0E0,0E0],"parents":[2147483647,0,0,1,1,2,2,3,3,5,5,6,6,7,7,10,10,11,11,13,13,14,14,15,15,19,19,20,20,21,21,22,22],"right_children":[2,4,6,8,-1,10,12,14,-1,-1,16,18,-1,20,22,24,-1,-1,-1,26,28,30,32,-1,-1,-1,-1,-1,-1,-1,-1,-1,-1],"split_conditions":[4E0,2E1,1.194E3,2.73E2,-6.1174084E-2,1.094E3,1.5469878E1,4.17E2,7.8824125E-2,-6.1191674E-2,5E0,1.9E2,-6.1164916E-2,6E0,1.0165547E-1,7.9452333E0,-6.1047625E-2,-5.9955955E-2,7.878211E-2,9.916091E6,1.9E2,6E0,1.9E2,8.001529E-2,-6.03427E-2,7.879066E-2,6.473216E-2,-6.1613675E-2,6.0365316E-2,9.289891E-2,-6.281402E-2,-5.5756856E-2,1.0920973E-1],"split_indices":[6,4,0,5,0,0,1,8,0,0,6,2,0,0,1,1,0,0,0,7,2,0,2,0,0,0,0,0,0,0,0,0,0],"split_type":[0,0,0,0,0,0,0,0,0,0,0,0,0,0,0,0,0,0,0,0,0,0,0,0,0,0,0,0,0,0,0,0,0],"sum_hessian":[6.561145E4,4.7748605E4,1.7862848E4,4.2498055E4,5.250553E3,1.4050454E4,3.812393E3,5.9881865E3,3.6509867E4,1.3605616E4,4.4483774E2,1.4310662E3,2.381327E3,4.6777935E3,1.3103932E3,6.2815746E1,3.82022E2,4.5626217E1,1.38544E3,4.5432393E3,1.3455434E2,7.7605705E1,1.2327875E3,2.4307697E1,3.850805E1,4.5113853E3,3.18539E1,1.3212912E2,2.4252295E0,6.535479E1,1.225092E1,1.2211261E3,1.1661278E1],"tree_param":{"num_deleted":"0","num_feature":"10","num_nodes":"33","size_leaf_vector":"1"}},{"base_weights":[-1.692071E-1,3.9857897E-1,-6.1186858E-2,7.6907927E-1,-5.8105E-1,-6.081101E-2,7.7943224E-1,-6.055573E-1,1.5924957E-1,7.837598E-1,-3.417742E-1,-1.1207253E-1,-6.0856795E-1,7.133456E-1,-6.1418276E-2,2.1458216E-1,7.851362E-1,8.02172E-2,-6.0365528E-2,-5.8423877E-2,3.4246367E-1,-4.8449603E-1,-6.0952383E-1,7.873907E-2,-5.379973E-2,-7.249661E-2,7.690064E-2,7.857845E-2,1.697015E-2,6.1574973E-2,-2.8634403E-2,-6.0360786E-2,-1.0171217E-2,-5.851216E-2,-6.1196327E-2],"categories":[],"categories_nodes":[],"categories_segments":[],"categories_sizes":[],"default_left":[0,0,0,0,0,0,0,0,0,0,0,0,0,0,0,0,0,0,0,0,0,0,0,0,0,0,0,0,0,0,0,0,0,0,0],"id":23,"left_children":[1,3,-1,5,7,-1,9,11,13,15,17,19,21,23,-1,25,27,-1,-1,-1,29,31,33,-1,-1,-1,-1,-1,-1,-1,-1,-1,-1,-1,-1],"loss_changes":[1.4290846E4,9.041369E3,0E0,2.5817676E2,1.2412378E2,0E0,8.73125E1,9.762939E0,9.465565E1,1.3833008E1,2.1356548E1,9.074785E0,4.8461914E-1,1.2334419E1,0E0,2.3732916E1,6.9785156E0,0E0,0E0,0E0,3.905255E0,2.453414E0,3.0517578E-2,0E0,0E0,0E0,0E0,0E0,0E0,0E0,0E0,0E0,0E0,0E0,0E0],"parents":[2147483647,0,0,1,1,3,3,4,4,6,6,7,7,8,8,9,9,10,10,11,11,12,12,13,13,15,15,16,16,20,20,21,21,22,22],"right_children":[2,4,-1,6,8,-1,10,12,14,16,18,20,22,24,-1,26,28,-1,-1,-1,30,32,34,-1,-1,-1,-1,-1,-1,-1,-1,-1,-1,-1,-1],"split_conditions":[2.73E2,1.0651717E0,-6.1186858E-2,3.2E1,1.68E2,-6.081101E-2,2.006267E6,1.4438859E0,1.9E2,8.151034E-2,2.4E2,3.2E1,2.143134E0,2.894356E3,-6.1418276E-2,6E0,4.4E1,8.02172E-2,-6.0365528E-2,-5.8423877E-2,7.22298E5,3.2E1,1.1906923E1,7.873907E-2,-5.379973E-2,-7.249661E-2,7.690064E-2,7.857845E-2,1.697015E-2,6.1574973E-2,-2.8634403E-2,-6.0360786E-2,-1.0171217E-2,-5.851216E-2,-6.1196327E-2],"split_indices":[5,1,0,3,2,0,7,1,2,1,8,3,1,1,0,0,3,0,0,0,7,3,1,0,0,0,0,0,0,0,0,0,0,0,0],"split_type":[0,0,0,0,0,0,0,0,0,0,0,0,0,0,0,0,0,0,0,0,0,0,0,0,0,0,0,0,0,0,0,0,0,0,0],"sum_hessian":[5.685733E4,2.4908361E4,3.1948967E4,1.8073205E4,6.835157E3,1.3441985E2,1.7938785E4,6.616308E3,2.1884892E2,1.7870111E4,6.8672424E1,4.035143E1,6.5759565E3,1.27549E2,9.129991E1,4.3490395E1,1.7826621E4,1.2408152E1,5.6264275E1,1.965192E1,2.0699509E1,5.4156445E1,6.5218003E3,1.2077331E2,6.7756944E0,1.6025454E1,2.7464941E1,1.7807588E4,1.9034372E1,1.4443142E1,6.2563663E0,4.0863846E1,1.3292597E1,6.146139E2,5.9071865E3],"tree_param":{"num_deleted":"0","num_feature":"10","num_nodes":"35","size_leaf_vector":"1"}},{"base_weights":[-1.6908082E-1,-6.002763E-1,7.5067215E-2,-6.0029782E-2,1.1354117E-3],"categories":[],"categories_nodes":[],"categories_segments":[],"categories_sizes":[],"default_left":[0,0,0,0,0],"id":24,"left_children":[1,3,-1,-1,-1],"loss_changes":[2.1146637E4,4.84375E-1,0E0,0E0,0E0],"parents":[2147483647,0,0,1,1],"right_children":[2,4,-1,-1,-1],"split_conditions":[2E1,1.5E1,7.5067215E-2,-6.0029782E-2,1.1354117E-3],"split_indices":[4,6,0,0,0],"split_type":[0,0,0,0,0],"sum_hessian":[5.331858E4,3.6300598E4,1.7017977E4,3.629934E4,1.2591577E0],"tree_param":{"num_deleted":"0","num_feature":"10","num_nodes":"5","size_leaf_vector":"1"}},{"base_weights":[2.8579357E-1,5.695483E-1,-4.9062854E-1,7.0992815E-1,-6.0005147E-2,-5.9775865E-1,-9.995509E-2,4.6087152E-1,7.505782E-2,-6.0023423E-2,-5.209596E-1,7.082808E-1,-5.9994865E-2,7.118747E-1,-4.5327982E-1,-5.3632356E-2,-5.9870005E-2,-5.8725607E-2,7.501557E-2,7.493822E-1,-5.7924974E-1,6.505202E-1,-5.255378E-1,7.573769E-2,-5.9031945E-2,7.502234E-2,6.114304E-2,-6.0563173E-2,5.7098176E-2,8.8595204E-2,-6.0812104E-2,-5.450482E-2,7.8772E-2],"categories":[],"categories_nodes":[],"categories_segments":[],"categories_sizes":[],"default_left":[0,0,0,0,0,0,0,0,0,0,0,0,0,0,0,0,0,0,0,0,0,0,0,0,0,0,0,0,0,0,0,0,0],"id":25,"left_children":[1,3,5,7,-1,9,11,13,-1,-1,15,17,-1,19,21,23,-1,-1,-1,25,27,29,31,-1,-1,-1,-1,-1,-1,-1,-1,-1,-1],"loss_changes":[1.3720443E4,7.488742E3,6.975664E2,4.1191992E2,0E0,2.1743164E0,1.4505269E3,1.3119679E3,0E0,0E0,1.508374E1,7.486658E1,0E0,2.1764282E2,9.860855E1,2.6754206E1,0E0,0E0,0E0,4.736328E-2,4.205269E0,2.310247E1,3.0071869E1,0E0,0E0,0E0,0E0,0E0,0E0,0E0,0E0,0E0,0E0],"parents":[2147483647,0,0,1,1,2,2,3,3,5,5,6,6,7,7,10,10,11,11,13,13,14,14,15,15,19,19,20,20,21,21,22,22],"right_children":[2,4,6,8,-1,10,12,14,-1,-1,16,18,-1,20,22,24,-1,-1,-1,26,28,30,32,-1,-1,-1,-1,-1,-1,-1,-1,-1,-1],"split_conditions":[4E0,2E1,1.194E3,2.73E2,-6.0005147E-2,1.094E3,1.5469878E1,4.17E2,7.505782E-2,-6.0023423E-2,5E0,1.9E2,-5.9994865E-2,6E0,1.0165547E-1,7.9452333E0,-5.9870005E-2,-5.8725607E-2,7.501557E-2,9.916091E6,1.9E2,6E0,2.006267E6,7.573769E-2,-5.9031945E-2,7.502234E-2,6.114304E-2,-6.0563173E-2,5.7098176E-2,8.8595204E-2,-6.0812104E-2,-5.450482E-2,7.8772E-2],"split_indices":[6,4,0,5,0,0,1,8,0,0,6,2,0,0,1,1,0,0,0,7,2,0,7,0,0,0,0,0,0,0,0,0,0],"split_type":[0,0,0,0,0,0,0,0,0,0,0,0,0,0,0,0,0,0,0,0,0,0,0,0,0,0,0,0,0,0,0,0,0],"sum_hessian":[6.2274652E4,4.560713E4,1.6667521E4,4.0720137E4,4.8869927E3,1.3080161E4,3.5873604E3,5.7153525E3,3.5004785E4,1.2665093E4,4.150681E2,1.3708977E3,2.2164626E3,4.4842974E3,1.2310552E3,5.944024E1,3.5562787E2,4.251552E1,1.3283822E3,4.358113E3,1.2618455E2,7.5145325E1,1.1559098E3,2.3506866E1,3.5933372E1,4.3272866E3,3.0826134E1,1.238181E2,2.3664503E0,6.355358E1,1.1591745E1,1.139565E3,1.6344954E1],"tree_param":{"num_deleted":"0","num_feature":"10","num_nodes":"33","size_leaf_vector":"1"}},{"base_weights":[-1.6434732E-1,3.8244897E-1,-6.0017914E-2,7.3217404E-1,-5.692507E-1,-5.963244E-2,7.418822E-1,-5.936295E-1,1.5380903E-1,7.459737E-1,-3.3100176E-1,-1.0686502E-1,-5.9666663E-1,6.8003505E-1,-6.0144175E-2,2.0224386E-1,7.4728835E-1,7.715886E-2,-5.9356373E-2,-5.7119798E-2,3.238207E-1,-4.6844503E-1,-5.976692E-1,7.4976616E-2,-5.2343827E-2,-6.973005E-2,7.312181E-2,6.4298876E-2,7.512825E-2,5.7635423E-2,-2.6631853E-2,-5.9061408E-2,-9.389804E-3,-5.7192534E-2,-6.0025044E-2],"categories":[],"categories_nodes":[],"categories_segments":[],"categories_sizes":[],"default_left":[0,0,0,0,0,0,0,0,0,0,0,0,0,0,0,0,0,0,0,0,0,0,0,0,0,0,0,0,0,0,0,0,0,0,0],"id":26,"left_children":[1,3,-1,5,7,-1,9,11,13,15,17,19,21,23,-1,25,27,-1,-1,-1,29,31,33,-1,-1,-1,-1,-1,-1,-1,-1,-1,-1,-1,-1],"loss_changes":[1.2735494E4,7.889583E3,0E0,2.2400293E2,1.1237988E2,0E0,7.578711E1,9.046631E0,8.33E1,1.2104492E1,1.9584993E1,8.07036E0,5.073242E-1,1.07472725E1,0E0,2.0838476E1,6.640625E0,0E0,0E0,0E0,3.2972312E0,2.3302774E0,6.0302734E-2,0E0,0E0,0E0,0E0,0E0,0E0,0E0,0E0,0E0,0E0,0E0,0E0],"parents":[2147483647,0,0,1,1,3,3,4,4,6,6,7,7,8,8,9,9,10,10,11,11,12,12,13,13,15,15,16,16,20,20,21,21,22,22],"right_children":[2,4,-1,6,8,-1,10,12,14,16,18,20,22,24,-1,26,28,-1,-1,-1,30,32,34,-1,-1,-1,-1,-1,-1,-1,-1,-1,-1,-1,-1],"split_conditions":[2.73E2,1.0651717E0,-6.0017914E-2,3.2E1,1.68E2,-5.963244E-2,2.006267E6,1.4438859E0,1.9E2,8.151034E-2,2.4E2,3.2E1,2.143134E0,2.894356E3,-6.0144175E-2,6E0,6E0,7.715886E-2,-5.9356373E-2,-5.7119798E-2,7.22298E5,3.2E1,1.1906923E1,7.4976616E-2,-5.2343827E-2,-6.973005E-2,7.312181E-2,6.4298876E-2,7.512825E-2,5.7635423E-2,-2.6631853E-2,-5.9061408E-2,-9.389804E-3,-5.7192534E-2,-6.0025044E-2],"split_indices":[5,1,0,3,2,0,7,1,2,1,8,3,1,1,0,0,0,0,0,0,7,3,1,0,0,0,0,0,0,0,0,0,0,0,0],"split_type":[0,0,0,0,0,0,0,0,0,0,0,0,0,0,0,0,0,0,0,0,0,0,0,0,0,0,0,0,0,0,0,0,0,0,0],"sum_hessian":[5.343864E4,2.3702062E4,2.9736578E4,1.73329E4,6.369162E3,1.25305176E2,1.7207594E4,6.161596E3,2.0756618E2,1.7142525E4,6.506948E1,3.8430607E1,6.1231655E3,1.2238983E2,8.5176346E1,4.1721878E1,1.7100803E4,1.2142049E1,5.292743E1,1.8335932E1,2.0094673E1,5.1138042E1,6.0720273E3,1.1604311E2,6.3467174E0,1.5331597E1,2.639028E1,6.3668384E2,1.646412E4,1.4089029E1,6.0056443E0,3.8125473E1,1.3012571E1,5.736188E2,5.4984087E3],"tree_param":{"num_deleted":"0","num_feature":"10","num_nodes":"35","size_leaf_vector":"1"}},{"base_weights":[-1.6482557E-1,-5.899012E-1,7.1899824E-2,-5.8992382E-2,1.2762882E-3],"categories":[],"categories_nodes":[],"categories_segments":[],"categories_sizes":[],"default_left":[0,0,0,0,0],"id":27,"left_children":[1,3,-1,-1,-1],"loss_changes":[1.8749445E4,4.6679688E-1,0E0,0E0,0E0],"parents":[2147483647,0,0,1,1],"right_children":[2,4,-1,-1,-1],"split_conditions":[2E1,1.5E1,7.1899824E-2,-5.8992382E-2,1.2762882E-3],"split_indices":[4,6,0,0,0],"split_type":[0,0,0,0,0],"sum_hessian":[4.990431E4,3.3697707E4,1.6206602E4,3.369646E4,1.2429053E0],"tree_param":{"num_deleted":"0","num_feature":"10","num_nodes":"5","size_leaf_vector":"1"}},{"base_weights":[2.7611208E-1,5.472633E-1,-4.811033E-1,6.803286E-1,-5.896628E-2,-5.873592E-1,-9.729089E-2,4.4316906E-1,7.189134E-2,-5.8983453E-2,-5.106737E-1,6.788668E-1,-5.8954872E-2,6.820512E-1,-4.398779E-1,-5.132094E-2,-5.8820873E-2,-5.761213E-2,7.1848184E-2,7.176986E-1,-5.6955636E-1,6.2724173E-1,-5.1167226E-1,7.211913E-2,-5.7847925E-2,7.185515E-2,5.7971764E-2,-5.9609897E-2,5.418191E-2,8.498708E-2,-5.8994472E-2,-5.292973E-2,9.993105E-2],"categories":[],"categories_nodes":[],"categories_segments":[],"categories_sizes":[],"default_left":[0,0,0,0,0,0,0,0,0,0,0,0,0,0,0,0,0,0,0,0,0,0,0,0,0,0,0,0,0,0,0,0,0],"id":28,"left_children":[1,3,5,7,-1,9,11,13,-1,-1,15,17,-1,19,21,23,-1,-1,-1,25,27,29,31,-1,-1,-1,-1,-1,-1,-1,-1,-1,-1],"loss_changes":[1.2073334E4,6.5506816E3,6.322634E2,3.54375E2,0E0,2.003418E0,1.2852699E3,1.1449823E3,0E0,0E0,1.3758324E1,6.532257E1,0E0,1.9098657E2,8.888707E1,2.363184E1,0E0,0E0,0E0,7.2021484E-2,3.8287659E0,2.0370192E1,2.9388916E1,0E0,0E0,0E0,0E0,0E0,0E0,0E0,0E0,0E0,0E0],"parents":[2147483647,0,0,1,1,2,2,3,3,5,5,6,6,7,7,10,10,11,11,13,13,14,14,15,15,19,19,20,20,21,21,22,22],"right_children":[2,4,6,8,-1,10,12,14,-1,-1,16,18,-1,20,22,24,-1,-1,-1,26,28,30,32,-1,-1,-1,-1,-1,-1,-1,-1,-1,-1],"split_conditions":[4E0,2E1,1.194E3,2.73E2,-5.896628E-2,1.094E3,1.5469878E1,4.17E2,7.189134E-2,-5.8983453E-2,5E0,1.9E2,-5.8954872E-2,6E0,1.0165547E-1,7.9452333E0,-5.8820873E-2,-5.761213E-2,7.1848184E-2,9.916091E6,1.9E2,6E0,1.9E2,7.211913E-2,-5.7847925E-2,7.185515E-2,5.7971764E-2,-5.9609897E-2,5.418191E-2,8.498708E-2,-5.8994472E-2,-5.292973E-2,9.993105E-2],"split_indices":[6,4,0,5,0,0,1,8,0,0,6,2,0,0,1,1,0,0,0,7,2,0,2,0,0,0,0,0,0,0,0,0,0],"split_type":[0,0,0,0,0,0,0,0,0,0,0,0,0,0,0,0,0,0,0,0,0,0,0,0,0,0,0,0,0,0,0,0,0],"sum_hessian":[5.8800273E4,4.3296504E4,1.5503768E4,3.8760406E4,4.5360986E3,1.2141848E4,3.36192E3,5.4254707E3,3.3334938E4,1.1755703E4,3.8614465E2,1.3045763E3,2.0573438E3,4.2704536E3,1.155017E3,5.6005356E1,3.301393E2,3.950582E1,1.2650704E3,4.1526084E3,1.1784506E2,7.232175E1,1.0826952E3,2.2566992E1,3.3438362E1,4.122918E3,2.96908E1,1.1554908E2,2.2959824E0,6.139423E1,1.0927519E1,1.0708539E3,1.1841391E1],"tree_param":{"num_deleted":"0","num_feature":"10","num_nodes":"33","size_leaf_vector":"1"}},{"base_weights":[-1.600953E-1,3.6865103E-1,-5.8979224E-2,7.0110774E-1,-5.587449E-1,-5.857816E-2,7.1028745E-1,-5.8297116E-1,1.465823E-1,7.1413106E-1,-3.1591335E-1,-1.02080904E-1,-5.860397E-1,6.5180796E-1,-5.9230532E-2,5.774146E-1,7.195523E-2,7.458057E-2,-5.8179576E-2,-5.5924017E-2,3.0700678E-1,-4.532457E-1,-5.8709455E-1,7.180092E-2,-5.0972916E-2,-1.0771855E-1,7.1940675E-2,5.4121282E-2,-2.467576E-2,-5.788842E-2,-8.657892E-3,-5.5978775E-2,-5.898418E-2],"categories":[],"categories_nodes":[],"categories_segments":[],"categories_sizes":[],"default_left":[0,0,0,0,0,0,0,0,0,0,0,0,0,0,0,0,0,0,0,0,0,0,0,0,0,0,0,0,0,0,0,0,0],"id":29,"left_children":[1,3,-1,5,7,-1,9,11,13,15,17,19,21,23,-1,25,-1,-1,-1,-1,27,29,31,-1,-1,-1,-1,-1,-1,-1,-1,-1,-1],"loss_changes":[1.1367779E4,6.9165615E3,0E0,1.954878E2,1.0124292E2,0E0,6.489746E1,8.38623E0,7.4070526E1,1.1692383E1,1.7901033E1,7.1851664E0,5.303955E-1,9.416855E0,0E0,1.4834248E2,0E0,0E0,0E0,0E0,2.7841148E0,2.21669E0,9.289551E-2,0E0,0E0,0E0,0E0,0E0,0E0,0E0,0E0,0E0,0E0],"parents":[2147483647,0,0,1,1,3,3,4,4,6,6,7,7,8,8,9,9,10,10,11,11,12,12,13,13,15,15,20,20,21,21,22,22],"right_children":[2,4,-1,6,8,-1,10,12,14,16,18,20,22,24,-1,26,-1,-1,-1,-1,28,30,32,-1,-1,-1,-1,-1,-1,-1,-1,-1,-1],"split_conditions":[2.73E2,1.0651717E0,-5.8979224E-2,3.2E1,1.68E2,-5.857816E-2,2.006267E6,1.4438859E0,1.9E2,6E0,2.4E2,3.2E1,2.143134E0,2.894356E3,-5.9230532E-2,6.9581753E-1,7.195523E-2,7.458057E-2,-5.8179576E-2,-5.5924017E-2,7.22298E5,3.2E1,1.1906923E1,7.180092E-2,-5.0972916E-2,-1.0771855E-1,7.1940675E-2,5.4121282E-2,-2.467576E-2,-5.788842E-2,-8.657892E-3,-5.5978775E-2,-5.898418E-2],"split_indices":[5,1,0,3,2,0,7,1,2,0,8,3,1,1,0,1,0,0,0,0,7,3,1,0,0,0,0,0,0,0,0,0,0],"split_type":[0,0,0,0,0,0,0,0,0,0,0,0,0,0,0,0,0,0,0,0,0,0,0,0,0,0,0,0,0,0,0,0,0],"sum_hessian":[5.003213E4,2.2430867E4,2.7601262E4,1.651187E4,5.918998E3,1.16504486E2,1.6395363E4,5.722614E3,1.9638408E2,1.6334488E4,6.0876E1,3.6501564E1,5.6861123E3,1.1670387E2,7.96802E1,6.271068E2,1.5707382E4,1.1830307E1,4.9045692E1,1.7064634E1,1.9436928E1,4.820631E1,5.6379062E3,1.1077231E2,5.9315634E0,4.904232E1,5.7806445E2,1.3675678E1,5.76125E0,3.547278E1,1.273353E1,5.3407404E2,5.103832E3],"tree_param":{"num_deleted":"0","num_feature":"10","num_nodes":"33","size_leaf_vector":"1"}},{"base_weights":[-1.6109821E-1,-5.806661E-1,6.921326E-2,-5.806899E-2,1.4090937E-3],"categories":[],"categories_nodes":[],"categories_segments":[],"categories_sizes":[],"default_left":[0,0,0,0,0],"id":30,"left_children":[1,3,-1,-1,-1],"loss_changes":[1.666428E4,4.501953E-1,0E0,0E0,0E0],"parents":[2147483647,0,0,1,1],"right_children":[2,4,-1,-1,-1],"split_conditions":[2E1,1.5E1,6.921326E-2,-5.806899E-2,1.4090937E-3],"split_indices":[4,6,0,0,0],"split_type":[0,0,0,0,0],"sum_hessian":[4.654767E4,3.120382E4,1.5343852E4,3.1202594E4,1.2255017E0],"tree_param":{"num_deleted":"0","num_feature":"10","num_nodes":"5","size_leaf_vector":"1"}},{"base_weights":[2.6775402E-1,5.282145E-1,-4.7265953E-1,6.551511E-1,-5.804167E-2,-5.781047E-1,-9.496337E-2,4.2782116E-1,6.920554E-2,-5.8057994E-2,-5.0150216E-1,6.538687E-1,-5.8029074E-2,6.5658903E-1,-4.2733923E-1,-4.9273815E-2,-5.788486E-2,-5.6602277E-2,6.9160886E-2,6.907129E-1,-5.6101555E-1,5.938668E-1,-4.9797067E-1,6.902414E-2,-5.6773163E-2,6.915879E-2,5.5136003E-2,-5.8773603E-2,5.155486E-2,8.02426E-2,-5.7336893E-2,-5.1576972E-2,9.253408E-2],"categories":[],"categories_nodes":[],"categories_segments":[],"categories_sizes":[],"default_left":[0,0,0,0,0,0,0,0,0,0,0,0,0,0,0,0,0,0,0,0,0,0,0,0,0,0,0,0,0,0,0,0,0],"id":31,"left_children":[1,3,5,7,-1,9,11,13,-1,-1,15,17,-1,19,21,23,-1,-1,-1,25,27,29,31,-1,-1,-1,-1,-1,-1,-1,-1,-1,-1],"loss_changes":[1.0658574E4,5.754073E3,5.727678E2,3.0747656E2,0E0,1.8408203E0,1.141649E3,1.0031628E3,0E0,0E0,1.2538765E1,5.7266724E1,0E0,1.6844641E2,7.837872E1,2.0930449E1,0E0,0E0,0E0,9.863281E-2,3.4908562E0,1.7619093E1,2.6141556E1,0E0,0E0,0E0,0E0,0E0,0E0,0E0,0E0,0E0,0E0],"parents":[2147483647,0,0,1,1,2,2,3,3,5,5,6,6,7,7,10,10,11,11,13,13,14,14,15,15,19,19,20,20,21,21,22,22],"right_children":[2,4,6,8,-1,10,12,14,-1,-1,16,18,-1,20,22,24,-1,-1,-1,26,28,30,32,-1,-1,-1,-1,-1,-1,-1,-1,-1,-1],"split_conditions":[4E0,2E1,1.194E3,2.73E2,-5.804167E-2,1.094E3,1.5469878E1,4.17E2,6.920554E-2,-5.8057994E-2,5E0,1.9E2,-5.8029074E-2,6E0,1.0165547E-1,7.9452333E0,-5.788486E-2,-5.6602277E-2,6.9160886E-2,9.916091E6,1.9E2,6E0,1.9E2,6.902414E-2,-5.6773163E-2,6.915879E-2,5.5136003E-2,-5.8773603E-2,5.155486E-2,8.02426E-2,-5.7336893E-2,-5.1576972E-2,9.253408E-2],"split_indices":[6,4,0,5,0,0,1,8,0,0,6,2,0,0,1,1,0,0,0,7,2,0,2,0,0,0,0,0,0,0,0,0,0],"split_type":[0,0,0,0,0,0,0,0,0,0,0,0,0,0,0,0,0,0,0,0,0,0,0,0,0,0,0,0,0,0,0,0,0],"sum_hessian":[5.526687E4,4.0884816E4,1.4382053E4,3.6684863E4,4.1999536E3,1.1242769E4,3.1392847E3,5.1253394E3,3.1559525E4,1.08844795E4,3.5828854E2,1.2343723E3,1.9049124E3,4.0437969E3,1.0815424E3,5.256855E1,3.0572E2,3.6622147E1,1.1977502E3,3.933978E3,1.0981879E2,6.9486244E1,1.01205615E3,2.1528915E1,3.1039637E1,3.905493E3,2.8485022E1,1.0760215E2,2.2166393E0,5.9217865E1,1.0268375E1,1.0001861E3,1.1870059E1],"tree_param":{"num_deleted":"0","num_feature":"10","num_nodes":"33","size_leaf_vector":"1"}},{"base_weights":[-1.5636235E-1,3.5679153E-1,-5.8054935E-2,6.747001E-1,-5.4929864E-1,-5.7632595E-2,6.83442E-1,-5.7342166E-1,1.4267197E-1,6.871378E-1,-3.0657107E-1,-9.763118E-2,-5.7652694E-1,6.2771803E-1,-5.818472E-2,5.497637E-1,6.926301E-2,7.239317E-2,-5.739934E-2,-5.4820415E-2,2.917314E-1,-4.3876514E-1,-5.776399E-1,6.9100015E-2,-4.9672846E-2,-1.03928946E-1,6.903359E-2,5.0950576E-2,-2.2762781E-2,-5.6824476E-2,-7.973592E-3,-5.4854285E-2,-5.8057833E-2],"categories":[],"categories_nodes":[],"categories_segments":[],"categories_sizes":[],"default_left":[0,0,0,0,0,0,0,0,0,0,0,0,0,0,0,0,0,0,0,0,0,0,0,0,0,0,0,0,0,0,0,0,0],"id":32,"left_children":[1,3,-1,5,7,-1,9,11,13,15,17,19,21,23,-1,25,-1,-1,-1,-1,27,29,31,-1,-1,-1,-1,-1,-1,-1,-1,-1,-1],"loss_changes":[1.0161596E4,6.085843E3,0E0,1.7143213E2,9.1683716E1,0E0,5.7038574E1,7.7785645E0,6.561162E1,1.1294434E1,1.6524826E1,6.403724E0,5.541992E-1,8.290882E0,0E0,1.3468282E2,0E0,0E0,0E0,0E0,2.3491473E0,2.1107254E0,1.2817383E-1,0E0,0E0,0E0,0E0,0E0,0E0,0E0,0E0,0E0,0E0],"parents":[2147483647,0,0,1,1,3,3,4,4,6,6,7,7,8,8,9,9,10,10,11,11,12,12,13,13,15,15,20,20,21,21,22,22],"right_children":[2,4,-1,6,8,-1,10,12,14,16,18,20,22,24,-1,26,-1,-1,-1,-1,28,30,32,-1,-1,-1,-1,-1,-1,-1,-1,-1,-1],"split_conditions":[2.73E2,1.0651717E0,-5.8054935E-2,3.2E1,1.68E2,-5.7632595E-2,2.006267E6,1.4438859E0,1.9E2,6E0,2.4E2,3.2E1,2.143134E0,2.894356E3,-5.818472E-2,6.9581753E-1,6.926301E-2,7.239317E-2,-5.739934E-2,-5.4820415E-2,7.22298E5,3.2E1,1.1906923E1,6.9100015E-2,-4.9672846E-2,-1.03928946E-1,6.903359E-2,5.0950576E-2,-2.2762781E-2,-5.6824476E-2,-7.973592E-3,-5.4854285E-2,-5.8057833E-2],"split_indices":[5,1,0,3,2,0,7,1,2,0,8,3,1,1,0,1,0,0,0,0,7,3,1,0,0,0,0,0,0,0,0,0,0],"split_type":[0,0,0,0,0,0,0,0,0,0,0,0,0,0,0,0,0,0,0,0,0,0,0,0,0,0,0,0,0,0,0,0,0],"sum_hessian":[4.6680848E4,2.1125162E4,2.5555688E4,1.5638523E4,5.4866387E3,1.08069405E2,1.5530454E4,5.301976E3,1.8466223E2,1.5472998E4,5.7456085E1,3.459011E1,5.267386E3,1.1069112E2,7.3971115E1,5.987281E2,1.487427E4,1.1486433E1,4.5969654E1,1.5845565E1,1.8744545E1,4.5379314E1,5.222007E3,1.0515844E2,5.532679E0,4.8140976E1,5.505871E2,1.3220136E1,5.52441E0,3.2923218E1,1.2456095E1,4.962052E2,4.725802E3],"tree_param":{"num_deleted":"0","num_feature":"10","num_nodes":"33","size_leaf_vector":"1"}},{"base_weights":[-1.5782866E-1,-5.7243955E-1,6.691728E-2,-5.7246473E-2,1.5330206E-3],"categories":[],"categories_nodes":[],"categories_segments":[],"categories_sizes":[],"default_left":[0,0,0,0,0],"id":33,"left_children":[1,3,-1,-1,-1],"loss_changes":[1.4841944E4,4.3554688E-1,0E0,0E0,0E0],"parents":[2147483647,0,0,1,1],"right_children":[2,4,-1,-1,-1],"split_conditions":[2E1,1.5E1,6.691728E-2,-5.7246473E-2,1.5330206E-3],"split_indices":[4,6,0,0,0],"split_type":[0,0,0,0,0],"sum_hessian":[4.328352E4,2.8830084E4,1.4453437E4,2.8828877E4,1.2070452E0],"tree_param":{"num_deleted":"0","num_feature":"10","num_nodes":"5","size_leaf_vector":"1"}},{"base_weights":[2.6050562E-1,5.1182926E-1,-4.6516094E-1,6.335826E-1,-5.7217557E-2,-5.698576E-1,-9.292327E-2,4.144872E-1,6.691012E-2,-5.723333E-2,-4.9330375E-1,6.3246423E-1,-5.720373E-2,6.3474023E-1,-4.1552863E-1,-4.744944E-2,-5.704814E-2,-5.5681802E-2,6.686346E-2,6.676137E-1,-5.535097E-1,5.6502324E-1,-4.849035E-1,6.635028E-2,-5.5792388E-2,6.693854E-2,5.8723E-2,-5.8042347E-2,4.916773E-2,7.619764E-2,-5.581456E-2,-5.0653126E-2,7.4203484E-2],"categories":[],"categories_nodes":[],"categories_segments":[],"categories_sizes":[],"default_left":[0,0,0,0,0,0,0,0,0,0,0,0,0,0,0,0,0,0,0,0,0,0,0,0,0,0,0,0,0,0,0,0,0],"id":34,"left_children":[1,3,5,7,-1,9,11,13,-1,-1,15,17,-1,19,21,23,-1,-1,-1,25,27,29,31,-1,-1,-1,-1,-1,-1,-1,-1,-1,-1],"loss_changes":[9.436151E3,5.0723438E3,5.186594E2,2.6858496E2,0E0,1.6862793E0,1.016223E3,8.818429E2,0E0,0E0,1.1419502E1,5.0407104E1,0E0,1.4924976E2,6.910857E1,1.8580324E1,0E0,0E0,0E0,1.352539E-1,3.1870327E0,1.5318035E1,2.546733E1,0E0,0E0,0E0,0E0,0E0,0E0,0E0,0E0,0E0,0E0],"parents":[2147483647,0,0,1,1,2,2,3,3,5,5,6,6,7,7,10,10,11,11,13,13,14,14,15,15,19,19,20,20,21,21,22,22],"right_children":[2,4,6,8,-1,10,12,14,-1,-1,16,18,-1,20,22,24,-1,-1,-1,26,28,30,32,-1,-1,-1,-1,-1,-1,-1,-1,-1,-1],"split_conditions":[4E0,2E1,1.194E3,2.73E2,-5.7217557E-2,1.094E3,1.5469878E1,4.17E2,6.691012E-2,-5.723333E-2,5E0,1.9E2,-5.720373E-2,6E0,1.0165547E-1,7.9452333E0,-5.704814E-2,-5.5681802E-2,6.686346E-2,2.006267E6,1.9E2,6E0,2.006267E6,6.635028E-2,-5.5792388E-2,6.693854E-2,5.8723E-2,-5.8042347E-2,4.916773E-2,7.619764E-2,-5.581456E-2,-5.0653126E-2,7.4203484E-2],"split_indices":[6,4,0,5,0,0,1,8,0,0,6,2,0,0,1,1,0,0,0,7,2,0,7,0,0,0,0,0,0,0,0,0,0],"split_type":[0,0,0,0,0,0,0,0,0,0,0,0,0,0,0,0,0,0,0,0,0,0,0,0,0,0,0,0,0,0,0,0,0],"sum_hessian":[5.1737453E4,3.8428586E4,1.3308866E4,3.4548574E4,3.880012E3,1.038689E4,2.921977E3,4.8212866E3,2.972729E4,1.0055236E4,3.3165265E2,1.1621462E3,1.7598308E3,3.8103953E3,1.0108913E3,4.9176327E1,2.8247632E2,3.3876938E1,1.1282693E3,3.7082432E3,1.0215197E2,6.6323494E1,9.445678E2,2.042712E1,2.8749207E1,3.6211023E3,8.714083E1,1.0002108E2,2.1308892E0,5.670209E1,9.621406E0,9.2878296E2,1.578485E1],"tree_param":{"num_deleted":"0","num_feature":"10","num_nodes":"33","size_leaf_vector":"1"}},{"base_weights":[-1.5307179E-1,3.4652013E-1,-5.723132E-2,6.5207446E-1,-5.4080915E-1,-5.6782242E-2,6.6045E-1,-5.648419E-1,1.3935468E-1,6.6403204E-1,-2.980652E-1,-9.347241E-2,-5.679895E-1,6.069801E-1,-5.7240058E-2,5.254196E-1,6.696214E-2,7.052544E-2,-5.6727957E-2,-5.379487E-2,2.777222E-1,-4.2489883E-1,-5.6916636E-1,6.678287E-2,-4.843123E-2,-1.00798845E-1,6.652669E-2,4.805522E-2,-2.089085E-2,-5.5854525E-2,-7.338052E-3,-5.3804405E-2,-5.7232272E-2],"categories":[],"categories_nodes":[],"categories_segments":[],"categories_sizes":[],"default_left":[0,0,0,0,0,0,0,0,0,0,0,0,0,0,0,0,0,0,0,0,0,0,0,0,0,0,0,0,0,0,0,0,0],"id":35,"left_children":[1,3,-1,5,7,-1,9,11,13,15,17,19,21,23,-1,25,-1,-1,-1,-1,27,29,31,-1,-1,-1,-1,-1,-1,-1,-1,-1,-1],"loss_changes":[9.094826E3,5.372152E3,0E0,1.5095996E2,8.30448E1,0E0,5.0458008E1,7.220581E0,5.826754E1,1.0946777E1,1.5307655E1,5.7121906E0,5.7836914E-1,7.3294563E0,0E0,1.2288707E2,0E0,0E0,0E0,0E0,1.9789472E0,2.0106225E0,1.661377E-1,0E0,0E0,0E0,0E0,0E0,0E0,0E0,0E0,0E0,0E0],"parents":[2147483647,0,0,1,1,3,3,4,4,6,6,7,7,8,8,9,9,10,10,11,11,12,12,13,13,15,15,20,20,21,21,22,22],"right_children":[2,4,-1,6,8,-1,10,12,14,16,18,20,22,24,-1,26,-1,-1,-1,-1,28,30,32,-1,-1,-1,-1,-1,-1,-1,-1,-1,-1],"split_conditions":[2.73E2,1.0651717E0,-5.723132E-2,3.2E1,1.68E2,-5.6782242E-2,2.006267E6,1.4438859E0,1.9E2,6E0,2.4E2,3.2E1,2.143134E0,2.894356E3,-5.7240058E-2,6.9581753E-1,6.696214E-2,7.052544E-2,-5.6727957E-2,-5.379487E-2,7.22298E5,3.2E1,1.1906923E1,6.678287E-2,-4.843123E-2,-1.00798845E-1,6.652669E-2,4.805522E-2,-2.089085E-2,-5.5854525E-2,-7.338052E-3,-5.3804405E-2,-5.7232272E-2],"split_indices":[5,1,0,3,2,0,7,1,2,0,8,3,1,1,0,1,0,0,0,0,7,3,1,0,0,0,0,0,0,0,0,0,0],"split_type":[0,0,0,0,0,0,0,0,0,0,0,0,0,0,0,0,0,0,0,0,0,0,0,0,0,0,0,0,0,0,0,0,0],"sum_hessian":[4.3420555E4,1.9811828E4,2.3608729E4,1.4737271E4,5.074556E3,1.0003685E2,1.4637234E4,4.9015356E3,1.7302057E2,1.4583043E4,5.419116E1,3.27165E1,4.8688193E3,1.0450661E2,6.8513954E1,5.689255E2,1.4014118E4,1.1121903E1,4.3069256E1,1.4684153E1,1.8032349E1,4.2670616E1,4.8261484E3,9.93548E1,5.151816E0,4.7030807E1,5.2189465E2,1.2736293E1,5.296056E0,3.0489595E1,1.2181019E1,4.601732E2,4.3659756E3],"tree_param":{"num_deleted":"0","num_feature":"10","num_nodes":"33","size_leaf_vector":"1"}},{"base_weights":[-1.549526E-1,-5.6510293E-1,6.494222E-2,-5.651295E-2,1.6475486E-3],"categories":[],"categories_nodes":[],"categories_segments":[],"categories_sizes":[],"default_left":[0,0,0,0,0],"id":36,"left_children":[1,3,-1,-1,-1],"loss_changes":[1.3242743E4,4.21875E-1,0E0,0E0,0E0],"parents":[2147483647,0,0,1,1],"right_children":[2,4,-1,-1,-1],"split_conditions":[2E1,1.5E1,6.494222E-2,-5.651295E-2,1.6475486E-3],"split_indices":[4,6,0,0,0],"split_type":[0,0,0,0,0],"sum_hessian":[4.0137805E4,2.6583293E4,1.3554512E4,2.6582104E4,1.1876285E0],"tree_param":{"num_deleted":"0","num_feature":"10","num_nodes":"5","size_leaf_vector":"1"}},{"base_weights":[2.5419244E-1,4.9765825E-1,-4.5849022E-1,6.1499393E-1,-5.6482054E-2,-5.624984E-1,-9.112942E-2,4.023233E-1,6.492781E-1,-5.6497503E-2,-4.8595673E-1,6.140175E-1,-5.6466907E-2,6.162791E-1,-4.2099324E-1,5.26793E-1,6.494806E-1,-4.5813855E-2,-5.6298673E-2,-5.483819E-2,6.488634E-2,6.4770365E-1,-5.741879E-2,-5.287548E-1,2.3002216E-1,6.35474E-2,-4.6723563E-2,8.4245704E-2,6.4935476E-2,6.4018615E-2,-5.489216E-2,6.4955406E-2,5.6459714E-2,1.5463109E-2,-5.428328E-2,9.074767E-2,-4.9503308E-2],"categories":[],"categories_nodes":[],"categories_segments":[],"categories_sizes":[],"default_left":[0,0,0,0,0,0,0,0,0,0,0,0,0,0,0,0,0,0,0,0,0,0,0,0,0,0,0,0,0,0,0,0,0,0,0,0,0],"id":37,"left_children":[1,3,5,7,-1,9,11,13,15,-1,17,19,-1,21,23,25,27,29,-1,-1,-1,31,-1,33,35,-1,-1,-1,-1,-1,-1,-1,-1,-1,-1,-1,-1],"loss_changes":[8.374423E3,4.485073E3,4.6951807E2,2.3594922E2,0E0,1.5407715E0,9.0623206E2,7.9297797E2,3.4960938E-1,0E0,1.0394386E1,4.452231E1,0E0,1.340122E2,6.5283325E1,5.8424397E0,1.2890625E-1,1.6526161E1,0E0,0E0,0E0,1.6870117E-1,0E0,7.753784E0,6.558603E1,0E0,0E0,0E0,0E0,0E0,0E0,0E0,0E0,0E0,0E0,0E0,0E0],"parents":[2147483647,0,0,1,1,2,2,3,3,5,5,6,6,7,7,8,8,10,10,11,11,13,13,14,14,15,15,16,16,17,17,21,21,23,23,24,24],"right_children":[2,4,6,8,-1,10,12,14,16,-1,18,20,-1,22,24,26,28,30,-1,-1,-1,32,-1,34,36,-1,-1,-1,-1,-1,-1,-1,-1,-1,-1,-1,-1],"split_conditions":[4E0,2E1,1.194E3,1.89E2,-5.6482054E-2,1.094E3,1.5469878E1,4.17E2,1.9E2,-5.6497503E-2,5E0,1.9E2,-5.6466907E-2,6E0,9.99401E5,6E0,2.73E2,7.9452333E0,-5.6298673E-2,-5.483819E-2,6.488634E-2,2.006267E6,-5.741879E-2,9.866981E-2,6.9581753E-1,6.35474E-2,-4.6723563E-2,8.4245704E-2,6.4935476E-2,6.4018615E-2,-5.489216E-2,6.4955406E-2,5.6459714E-2,1.5463109E-2,-5.428328E-2,9.074767E-2,-4.9503308E-2],"split_indices":[6,4,0,5,0,0,1,8,2,0,6,2,0,0,7,0,5,1,0,0,0,7,0,1,1,0,0,0,0,0,0,0,0,0,0,0,0],"split_type":[0,0,0,0,0,0,0,0,0,0,0,0,0,0,0,0,0,0,0,0,0,0,0,0,0,0,0,0,0,0,0,0,0,0,0,0,0],"sum_hessian":[4.8261395E4,3.5972734E4,1.2288659E4,3.239553E4,3.5772053E3,9.576737E3,2.7119219E3,4.4991616E3,2.7896367E4,9.270396E3,3.063416E2,1.0894008E3,1.6225212E3,3.5713296E3,9.278323E2,5.0332203E1,2.7846035E4,4.586541E1,2.604762E2,3.127813E1,1.0581227E3,3.4799265E3,9.140305E1,7.962226E2,1.3160966E2,4.5696712E1,4.6354904E0,1.3777169E1,2.7832258E4,1.9290232E1,2.6575176E1,3.3974634E3,8.246302E1,1.5869854E1,7.803527E2,6.790816E1,6.3701508E1],"tree_param":{"num_deleted":"0","num_feature":"10","num_nodes":"37","size_leaf_vector":"1"}},{"base_weights":[-1.5016365E-1,3.3757716E-1,-5.649645E-2,6.3260204E-1,-5.3318715E-1,-5.602171E-2,6.406761E-1,-5.571085E-1,1.3376401E-1,6.441123E-1,-2.8467667E-1,-8.956249E-2,-5.603039E-1,5.8896625E-1,-5.6596626E-2,5.036832E-1,6.498249E-2,6.89254E-2,-5.5835605E-2,-5.2834105E-2,2.647608E-1,-4.1155106E-1,-5.615508E-1,6.477769E-2,-4.723729E-2,-9.8220974E-2,6.43424E-2,4.5380574E-2,-1.9056438E-2,-5.496463E-2,-6.7514814E-3,-5.281527E-2,-5.6495376E-2],"categories":[],"categories_nodes":[],"categories_segments":[],"categories_sizes":[],"default_left":[0,0,0,0,0,0,0,0,0,0,0,0,0,0,0,0,0,0,0,0,0,0,0,0,0,0,0,0,0,0,0,0,0],"id":38,"left_children":[1,3,-1,5,7,-1,9,11,13,15,17,19,21,23,-1,25,-1,-1,-1,-1,27,29,31,-1,-1,-1,-1,-1,-1,-1,-1,-1,-1],"loss_changes":[8.1490957E3,4.7560635E3,0E0,1.3353271E2,7.482739E1,0E0,4.3856934E1,6.7077637E0,5.2263935E1,1.0650391E1,1.4114264E1,5.0985646E0,6.019287E-1,6.5021324E0,0E0,1.1262843E2,0E0,0E0,0E0,0E0,1.6627035E0,1.9149389E0,2.0776367E-1,0E0,0E0,0E0,0E0,0E0,0E0,0E0,0E0,0E0,0E0],"parents":[2147483647,0,0,1,1,3,3,4,4,6,6,7,7,8,8,9,9,10,10,11,11,12,12,13,13,15,15,20,20,21,21,22,22],"right_children":[2,4,-1,6,8,-1,10,12,14,16,18,20,22,24,-1,26,-1,-1,-1,-1,28,30,32,-1,-1,-1,-1,-1,-1,-1,-1,-1,-1],"split_conditions":[2.73E2,1.0651717E0,-5.649645E-2,3.2E1,1.68E2,-5.602171E-2,2.006267E6,1.4438859E0,1.9E2,6E0,2.4E2,3.2E1,2.143134E0,2.894356E3,-5.6596626E-2,6.9581753E-1,6.498249E-2,6.89254E-2,-5.5835605E-2,-5.2834105E-2,7.22298E5,3.2E1,1.1906923E1,6.477769E-2,-4.723729E-2,-9.8220974E-2,6.43424E-2,4.5380574E-2,-1.9056438E-2,-5.496463E-2,-6.7514814E-3,-5.281527E-2,-5.6495376E-2],"split_indices":[5,1,0,3,2,0,7,1,2,0,8,3,1,1,0,1,0,0,0,0,7,3,1,0,0,0,0,0,0,0,0,0,0],"split_type":[0,0,0,0,0,0,0,0,0,0,0,0,0,0,0,0,0,0,0,0,0,0,0,0,0,0,0,0,0,0,0,0,0],"sum_hessian":[4.0277242E4,1.8511182E4,2.1766062E4,1.3826782E4,4.6843984E3,9.250279E1,1.3734279E4,4.5223604E3,1.620378E2,1.36837705E4,5.0508854E1,3.0894884E1,4.4914653E3,9.826852E1,6.376927E1,5.383785E2,1.3145393E4,1.0746672E1,3.9762184E1,1.3583071E1,1.7311813E1,4.00873E1,4.4513784E3,9.3478386E1,4.7901306E0,4.5761208E1,4.9261728E2,1.2235242E1,5.076572E0,2.8178774E1,1.1908527E1,4.2605383E2,4.0253245E3],"tree_param":{"num_deleted":"0","num_feature":"10","num_nodes":"33","size_leaf_vector":"1"}},{"base_weights":[-1.5240742E-1,-5.5854505E-1,6.3233554E-2,-5.5857327E-2,1.7523861E-3],"categories":[],"categories_nodes":[],"categories_segments":[],"categories_sizes":[],"default_left":[0,0,0,0,0],"id":39,"left_children":[1,3,-1,-1,-1],"loss_changes":[1.1834169E4,4.0722656E-1,0E0,0E0,0E0],"parents":[2147483647,0,0,1,1],"right_children":[2,4,-1,-1,-1],"split_conditions":[2E1,1.5E1,6.3233554E-2,-5.5857327E-2,1.7523861E-3],"split_indices":[4,6,0,0,0],"split_type":[0,0,0,0,0],"sum_hessian":[3.712893E4,2.446668E4,1.2662252E4,2.4465512E4,1.1673403E0],"tree_param":{"num_deleted":"0","num_feature":"10","num_nodes":"5","size_leaf_vector":"1"}},{"base_weights":[2.4867846E-1,4.8536047E-1,-4.525467E-1,5.9891295E-1,-5.5824805E-2,-5.559232E-1,-8.954806E-2,3.923157E-1,6.321905E-1,-5.5840146E-2,-4.793554E-1,5.980289E-1,-5.5808224E-2,5.998428E-1,-4.1182405E-1,5.12322E-1,6.3238755E-2,-4.4338964E-2,-5.5625983E-2,-5.406036E-2,6.3175045E-2,6.304389E-1,-5.686718E-2,-5.1938635E-1,2.24841E-1,6.1801564E-2,-4.5581274E-2,6.196725E-2,-5.4060657E-2,6.314558E-2,4.7738135E-2,1.4059705E-2,-5.3385343E-2,8.7128006E-2,-4.8205353E-2],"categories":[],"categories_nodes":[],"categories_segments":[],"categories_sizes":[],"default_left":[0,0,0,0,0,0,0,0,0,0,0,0,0,0,0,0,0,0,0,0,0,0,0,0,0,0,0,0,0,0,0,0,0,0,0],"id":40,"left_children":[1,3,5,7,-1,9,11,13,15,-1,17,19,-1,21,23,25,-1,27,-1,-1,-1,29,-1,31,33,-1,-1,-1,-1,-1,-1,-1,-1,-1,-1],"loss_changes":[7.448279E3,3.9764458E3,4.2493433E2,2.0779395E2,0E0,1.4050293E0,8.0943146E2,7.012512E2,2.919922E-1,0E0,9.4570465E0,3.944159E1,0E0,1.1974707E2,5.9166977E1,5.1958094E0,0E0,1.4723464E1,0E0,0E0,0E0,2.0507812E-1,0E0,7.1211243E0,5.7688034E1,0E0,0E0,0E0,0E0,0E0,0E0,0E0,0E0,0E0,0E0],"parents":[2147483647,0,0,1,1,2,2,3,3,5,5,6,6,7,7,8,8,10,10,11,11,13,13,14,14,15,15,17,17,21,21,23,23,24,24],"right_children":[2,4,6,8,-1,10,12,14,16,-1,18,20,-1,22,24,26,-1,28,-1,-1,-1,30,-1,32,34,-1,-1,-1,-1,-1,-1,-1,-1,-1,-1],"split_conditions":[4E0,2E1,1.194E3,1.89E2,-5.5824805E-2,1.094E3,1.5469878E1,4.17E2,1.9E2,-5.5840146E-2,5E0,1.9E2,-5.5808224E-2,6E0,9.99401E5,6E0,6.3238755E-2,7.9452333E0,-5.5625983E-2,-5.406036E-2,6.3175045E-2,9.916091E6,-5.686718E-2,9.866981E-2,6.9581753E-1,6.1801564E-2,-4.5581274E-2,6.196725E-2,-5.4060657E-2,6.314558E-2,4.7738135E-2,1.4059705E-2,-5.3385343E-2,8.7128006E-2,-4.8205353E-2],"split_indices":[6,4,0,5,0,0,1,8,2,0,6,2,0,0,7,0,0,1,0,0,0,7,0,1,1,0,0,0,0,0,0,0,0,0,0],"split_type":[0,0,0,0,0,0,0,0,0,0,0,0,0,0,0,0,0,0,0,0,0,0,0,0,0,0,0,0,0,0,0,0,0,0,0],"sum_hessian":[4.487564E4,3.355145E4,1.1324193E4,3.0259422E4,3.2920278E3,8.813663E3,2.5105303E3,4.1996294E3,2.6059793E4,8.531243E3,2.8241965E2,1.0173241E3,1.4932062E3,3.3383452E3,8.61284E2,4.7024208E1,2.6012768E4,4.2663944E1,2.397557E2,2.8829933E1,9.8849414E2,3.2536135E3,8.473154E1,7.3696124E2,1.24322784E2,4.2721806E1,4.3024006E0,1.8141607E1,2.4522335E1,3.2290361E3,2.4577362E1,1.562091E1,7.2134033E2,6.481677E1,5.9506016E1],"tree_param":{"num_deleted":"0","num_feature":"10","num_nodes":"35","size_leaf_vector":"1"}},{"base_weights":[-1.4760086E-1,3.2976672E-1,-5.5839993E-2,6.1572593E-1,-5.263022E-1,-5.532945E-2,6.235439E-1,-5.501208E-1,1.3073482E-1,6.268285E-1,-2.69382E-1,-8.615888E-2,-5.533669E-1,5.72855E-1,-5.580573E-2,4.8411593E-1,6.326847E-2,6.754048E-2,-5.4955404E-2,-5.1927656E-2,2.5233874E-1,-5.0923365E-1,-5.5836946E-2,6.300049E-2,-4.6081662E-2,-9.492427E-2,6.2396657E-2,4.2850085E-2,-1.7260835E-2,-5.4701805E-2,1.1231667E-1],"categories":[],"categories_nodes":[],"categories_segments":[],"categories_sizes":[],"default_left":[0,0,0,0,0,0,0,0,0,0,0,0,0,0,0,0,0,0,0,0,0,0,0,0,0,0,0,0,0,0,0],"id":41,"left_children":[1,3,-1,5,7,-1,9,11,13,15,17,19,21,23,-1,25,-1,-1,-1,-1,27,29,-1,-1,-1,-1,-1,-1,-1,-1,-1],"loss_changes":[7.308777E3,4.2203496E3,0E0,1.1844873E2,6.7631714E1,0E0,3.7819336E1,6.2269287E0,4.655668E1,1.0383301E1,1.30100565E1,4.5484853E0,6.290283E-1,5.7823143E0,0E0,1.02508224E2,0E0,0E0,0E0,0E0,1.3904258E0,2.7294418E1,0E0,0E0,0E0,0E0,0E0,0E0,0E0,0E0,0E0],"parents":[2147483647,0,0,1,1,3,3,4,4,6,6,7,7,8,8,9,9,10,10,11,11,12,12,13,13,15,15,20,20,21,21],"right_children":[2,4,-1,6,8,-1,10,12,14,16,18,20,22,24,-1,26,-1,-1,-1,-1,28,30,-1,-1,-1,-1,-1,-1,-1,-1,-1],"split_conditions":[2.73E2,1.0651717E0,-5.5839993E-2,3.2E1,1.68E2,-5.532945E-2,2.006267E6,1.4438859E0,1.9E2,6E0,2.4E2,3.2E1,1.1906923E1,2.894356E3,-5.580573E-2,6.9581753E-1,6.326847E-2,6.754048E-2,-5.4955404E-2,-5.1927656E-2,7.22298E5,6E0,-5.5836946E-2,6.300049E-2,-4.6081662E-2,-9.492427E-2,6.2396657E-2,4.2850085E-2,-1.7260835E-2,-5.4701805E-2,1.1231667E-1],"split_indices":[5,1,0,3,2,0,7,1,2,0,8,3,1,1,0,1,0,0,0,0,7,0,0,0,0,0,0,0,0,0,0],"split_type":[0,0,0,0,0,0,0,0,0,0,0,0,0,0,0,0,0,0,0,0,0,0,0,0,0,0,0,0,0,0,0],"sum_hessian":[3.7268312E4,1.723761E4,2.0030703E4,1.2921592E4,4.316017E3,8.537706E1,1.2836215E4,4.165186E3,1.5083122E2,1.2789467E4,4.6747448E1,2.9130775E1,4.136055E3,9.196761E1,5.8863617E1,5.0742023E2,1.2282047E4,1.0369406E1,3.637804E1,1.2545006E1,1.658577E1,4.315614E2,3.704494E3,8.751933E1,4.4482784E0,4.4592697E1,4.6282755E2,1.1719203E1,4.866566E0,4.224481E2,9.113293E0],"tree_param":{"num_deleted":"0","num_feature":"10","num_nodes":"31","size_leaf_vector":"1"}},{"base_weights":[-1.501499E-1,-5.5267507E-1,6.1748136E-2,-5.5270504E-2,1.847394E-3],"categories":[],"categories_nodes":[],"categories_segments":[],"categories_sizes":[],"default_left":[0,0,0,0,0],"id":42,"left_children":[1,3,-1,-1,-1],"loss_changes":[1.0589806E4,3.9453125E-1,0E0,0E0,0E0],"parents":[2147483647,0,0,1,1],"right_children":[2,4,-1,-1,-1],"split_conditions":[2E1,1.5E1,6.1748136E-2,-5.5270504E-2,1.847394E-3],"split_indices":[4,6,0,0,0],"split_type":[0,0,0,0,0],"sum_hessian":[3.4270117E4,2.2481633E4,1.1788483E4,2.2480486E4,1.1462647E0],"tree_param":{"num_deleted":"0","num_feature":"10","num_nodes":"5","size_leaf_vector":"1"}},{"base_weights":[2.4383472E-1,4.7462234E-1,-4.472433E-1,5.8491015E-1,-5.5236764E-2,-5.5004174E-1,-8.815058E-2,3.8349557E-1,6.173357E-1,-5.5252224E-2,-4.7340783E-1,5.8410084E-1,-5.5218633E-2,5.8556056E-1,-4.0318745E-1,4.9945077E-1,6.1752826E-2,-4.3000873E-2,-5.5020887E-2,-5.3338498E-2,6.1686344E-2,6.1533564E-1,-5.6167096E-2,-5.1052165E-1,2.198672E-1,6.0263902E-2,-4.4466008E-2,6.0146928E-2,-5.3287353E-2,6.1740663E-2,5.2433457E-2,1.2792297E-2,-5.25391E-2,8.390302E-2,-4.6962213E-2],"categories":[],"categories_nodes":[],"categories_segments":[],"categories_sizes":[],"default_left":[0,0,0,0,0,0,0,0,0,0,0,0,0,0,0,0,0,0,0,0,0,0,0,0,0,0,0,0,0,0,0,0,0,0,0],"id":43,"left_children":[1,3,5,7,-1,9,11,13,15,-1,17,19,-1,21,23,25,-1,27,-1,-1,-1,29,-1,31,33,-1,-1,-1,-1,-1,-1,-1,-1,-1,-1],"loss_changes":[6.6368896E3,3.533546E3,3.845171E2,1.8374023E2,0E0,1.2780762E0,7.23976E2,6.215871E2,2.421875E-1,0E0,8.6011505E0,3.5030914E1,0E0,1.0659375E2,5.357332E1,4.63233E0,0E0,1.3135955E1,0E0,0E0,0E0,2.475586E-1,0E0,6.5438995E0,5.0844616E1,0E0,0E0,0E0,0E0,0E0,0E0,0E0,0E0,0E0,0E0],"parents":[2147483647,0,0,1,1,2,2,3,3,5,5,6,6,7,7,8,8,10,10,11,11,13,13,14,14,15,15,17,17,21,21,23,23,24,24],"right_children":[2,4,6,8,-1,10,12,14,16,-1,18,20,-1,22,24,26,-1,28,-1,-1,-1,30,-1,32,34,-1,-1,-1,-1,-1,-1,-1,-1,-1,-1],"split_conditions":[4E0,2E1,1.194E3,1.89E2,-5.5236764E-2,1.094E3,1.5469878E1,4.17E2,1.9E2,-5.5252224E-2,5E0,1.9E2,-5.5218633E-2,6E0,9.99401E5,6E0,6.1752826E-2,7.9452333E0,-5.5020887E-2,-5.3338498E-2,6.1686344E-2,2.006267E6,-5.6167096E-2,9.866981E-2,6.9581753E-1,6.0263902E-2,-4.4466008E-2,6.0146928E-2,-5.3287353E-2,6.1740663E-2,5.2433457E-2,1.2792297E-2,-5.25391E-2,8.390302E-2,-4.6962213E-2],"split_indices":[6,4,0,5,0,0,1,8,2,0,6,2,0,0,7,0,0,1,0,0,0,7,0,1,1,0,0,0,0,0,0,0,0,0,0],"split_type":[0,0,0,0,0,0,0,0,0,0,0,0,0,0,0,0,0,0,0,0,0,0,0,0,0,0,0,0,0,0,0,0,0,0,0],"sum_hessian":[4.1610285E4,3.1193451E4,1.0416835E4,2.8168848E4,3.0246045E3,8.098052E3,2.3187834E3,3.9078242E3,2.4261023E4,7.8381343E3,2.5991748E2,9.468366E2,1.3719468E3,3.1094072E3,7.984172E2,4.3798893E1,2.4217225E4,3.9592686E1,2.2032478E2,2.653354E1,9.203031E2,3.0311995E3,7.820765E1,6.8124E2,1.171772E2,3.9809525E1,3.9893663E0,1.6999956E1,2.2592731E1,2.9580962E3,7.3103386E1,1.5331879E1,6.659081E2,6.162285E1,5.5554348E1],"tree_param":{"num_deleted":"0","num_feature":"10","num_nodes":"35","size_leaf_vector":"1"}},{"base_weights":[-1.45325E-1,3.2291517E-1,-5.525287E-2,6.010195E-1,-5.201534E-1,-5.46965E-2,6.0861456E-1,-5.4388064E-1,1.277075E-1,6.117633E-1,-2.540282E-1,-8.2973465E-2,-5.471844E-1,5.587023E-1,-5.5108067E-2,4.663991E-1,6.17782E-2,6.6322155E-2,-5.4150075E-2,-5.106622E-2,2.40663E-1,-5.0066763E-1,-5.524809E-2,6.1446887E-2,-4.4956315E-2,-9.201241E-2,6.067685E-2,4.046959E-2,-1.550626E-2,-5.3996485E-2,1.01771705E-1],"categories":[],"categories_nodes":[],"categories_segments":[],"categories_sizes":[],"default_left":[0,0,0,0,0,0,0,0,0,0,0,0,0,0,0,0,0,0,0,0,0,0,0,0,0,0,0,0,0,0,0],"id":44,"left_children":[1,3,-1,5,7,-1,9,11,13,15,17,19,21,23,-1,25,-1,-1,-1,-1,27,29,-1,-1,-1,-1,-1,-1,-1,-1,-1],"loss_changes":[6.560895E3,3.752997E3,0E0,1.05274414E2,6.110669E1,0E0,3.263379E1,5.7874756E0,4.1585644E1,1.0135742E1,1.2012198E1,4.0595517E0,6.604004E-1,5.1565437E0,0E0,9.354294E1,0E0,0E0,0E0,0E0,1.1577859E0,2.4382774E1,0E0,0E0,0E0,0E0,0E0,0E0,0E0,0E0,0E0],"parents":[2147483647,0,0,1,1,3,3,4,4,6,6,7,7,8,8,9,9,10,10,11,11,12,12,13,13,15,15,20,20,21,21],"right_children":[2,4,-1,6,8,-1,10,12,14,16,18,20,22,24,-1,26,-1,-1,-1,-1,28,30,-1,-1,-1,-1,-1,-1,-1,-1,-1],"split_conditions":[2.73E2,1.0651717E0,-5.525287E-2,3.2E1,1.68E2,-5.46965E-2,2.006267E6,1.4438859E0,1.9E2,6E0,2.4E2,3.2E1,1.1906923E1,2.894356E3,-5.5108067E-2,6.9581753E-1,6.17782E-2,6.6322155E-2,-5.4150075E-2,-5.106622E-2,7.22298E5,6E0,-5.524809E-2,6.1446887E-2,-4.4956315E-2,-9.201241E-2,6.067685E-2,4.046959E-2,-1.550626E-2,-5.3996485E-2,1.01771705E-1],"split_indices":[5,1,0,3,2,0,7,1,2,0,8,3,1,1,0,1,0,0,0,0,7,0,0,0,0,0,0,0,0,0,0],"split_type":[0,0,0,0,0,0,0,0,0,0,0,0,0,0,0,0,0,0,0,0,0,0,0,0,0,0,0,0,0,0,0],"sum_hessian":[3.4407914E4,1.6004581E4,1.8403332E4,1.2034898E4,3.9696829E3,7.863282E1,1.1956266E4,3.8295886E3,1.4009439E2,1.1913072E4,4.3193264E1,2.7440813E1,3.8021477E3,8.57956E1,5.4298786E1,4.7676212E2,1.143631E4,9.994942E0,3.319832E1,1.1571317E1,1.5869496E1,3.9842896E2,3.4037188E3,8.16691E1,4.126502E0,4.331872E1,4.334434E2,1.1203038E1,4.6664577E0,3.8900552E2,9.423449E0],"tree_param":{"num_deleted":"0","num_feature":"10","num_nodes":"31","size_leaf_vector":"1"}},{"base_weights":[-1.4814974E-1,-5.4742074E-1,6.0451116E-2,-5.4745257E-2,1.932605E-3],"categories":[],"categories_nodes":[],"categories_segments":[],"categories_sizes":[],"default_left":[0,0,0,0,0],"id":45,"left_children":[1,3,-1,-1,-1],"loss_changes":[9.487682E3,3.8330078E-1,0E0,0E0,0E0],"parents":[2147483647,0,0,1,1],"right_children":[2,4,-1,-1,-1],"split_conditions":[2E1,1.5E1,6.0451116E-2,-5.4745257E-2,1.932605E-3],"split_indices":[4,6,0,0,0],"split_type":[0,0,0,0,0],"sum_hessian":[3.156924E4,2.0627207E4,1.0942033E4,2.0626082E4,1.1244825E0],"tree_param":{"num_deleted":"0","num_feature":"10","num_nodes":"5","size_leaf_vector":"1"}},{"base_weights":[2.3956668E-1,4.652029E-1,-4.4250464E-1,5.7265437E-1,-5.4710068E-2,-5.4477495E-1,-8.6912885E-2,3.7567133E-1,6.0436416E-1,-5.4725844E-2,-4.6803373E-1,5.719133E-1,-5.469023E-2,5.730291E-1,-3.949738E-1,4.8791528E-1,6.0455322E-2,-4.1779507E-2,-5.4475337E-2,-5.26638E-2,6.0385477E-2,6.0210276E-1,-5.5525005E-2,-5.0206596E-1,2.1520628E-1,5.8900356E-2,-4.3371446E-2,5.851791E-2,-5.256288E-2,6.0430385E-2,5.0669413E-2,1.1642873E-2,-5.173492E-2,8.098604E-2,-4.5741E-2],"categories":[],"categories_nodes":[],"categories_segments":[],"categories_sizes":[],"default_left":[0,0,0,0,0,0,0,0,0,0,0,0,0,0,0,0,0,0,0,0,0,0,0,0,0,0,0,0,0,0,0,0,0,0,0],"id":46,"left_children":[1,3,5,7,-1,9,11,13,15,-1,17,19,-1,21,23,25,-1,27,-1,-1,-1,29,-1,31,33,-1,-1,-1,-1,-1,-1,-1,-1,-1,-1],"loss_changes":[5.9235283E3,3.146186E3,3.479005E2,1.630918E2,0E0,1.1601562E0,6.4833234E2,5.52024E2,2.0117188E-1,0E0,7.820465E0,3.1183655E1,0E0,9.509454E1,4.8482018E1,4.1390953E0,0E0,1.1733752E1,0E0,0E0,0E0,2.8533936E-1,0E0,6.015869E0,4.4858475E1,0E0,0E0,0E0,0E0,0E0,0E0,0E0,0E0,0E0,0E0],"parents":[2147483647,0,0,1,1,2,2,3,3,5,5,6,6,7,7,8,8,10,10,11,11,13,13,14,14,15,15,17,17,21,21,23,23,24,24],"right_children":[2,4,6,8,-1,10,12,14,16,-1,18,20,-1,22,24,26,-1,28,-1,-1,-1,30,-1,32,34,-1,-1,-1,-1,-1,-1,-1,-1,-1,-1],"split_conditions":[4E0,2E1,1.194E3,1.89E2,-5.4710068E-2,1.094E3,1.5469878E1,4.17E2,1.9E2,-5.4725844E-2,5E0,1.9E2,-5.469023E-2,6E0,9.99401E5,6E0,6.0455322E-2,7.9452333E0,-5.4475337E-2,-5.26638E-2,6.0385477E-2,2.006267E6,-5.5525005E-2,9.866981E-2,6.9581753E-1,5.8900356E-2,-4.3371446E-2,5.851791E-2,-5.256288E-2,6.0430385E-2,5.0669413E-2,1.1642873E-2,-5.173492E-2,8.098604E-2,-4.5741E-2],"split_indices":[6,4,0,5,0,0,1,8,2,0,6,2,0,0,7,0,0,1,0,0,0,7,0,1,1,0,0,0,0,0,0,0,0,0,0],"split_type":[0,0,0,0,0,0,0,0,0,0,0,0,0,0,0,0,0,0,0,0,0,0,0,0,0,0,0,0,0,0,0,0,0,0,0],"sum_hessian":[3.8487125E4,2.8920309E4,9.566818E3,2.6145514E4,2.7747942E3,7.429514E3,2.1373037E3,3.6270325E3,2.251848E4,7.1906753E3,2.3883875E2,8.786302E2,1.2586736E3,2.8877522E3,7.392802E2,4.068514E1,2.2477797E4,3.6666176E1,2.0217256E2,2.4387653E1,8.5424255E2,2.8156643E3,7.2088036E1,6.290529E2,1.10227325E2,3.6988945E1,3.696194E0,1.587995E1,2.0786226E1,2.746958E3,6.87063E1,1.5009673E1,6.140432E2,5.8395947E1,5.183138E1],"tree_param":{"num_deleted":"0","num_feature":"10","num_nodes":"35","size_leaf_vector":"1"}},{"base_weights":[-1.4329743E-1,3.168722E-1,-5.4727238E-2,5.881219E-1,-5.145889E-1,-5.4125447E-2,5.95534E-1,-5.382365E-1,1.2502567E-1,5.98568E-1,-2.3913628E-1,-7.992853E-2,-5.4160446E-1,5.461936E-1,-5.4464113E-2,4.5020133E-1,6.047685E-1,6.524967E-2,-5.342561E-2,-5.0239515E-2,2.2966883E-1,-4.9263266E-1,-5.472058E-2,6.0080945E-2,-4.385437E-2,-8.942858E-2,5.9144355E-2,6.0485717E-2,3.597503E-2,5.7301205E-2,2.5435297E-3,-5.3341847E-2,9.311253E-2],"categories":[],"categories_nodes":[],"categories_segments":[],"categories_sizes":[],"default_left":[0,0,0,0,0,0,0,0,0,0,0,0,0,0,0,0,0,0,0,0,0,0,0,0,0,0,0,0,0,0,0,0,0],"id":47,"left_children":[1,3,-1,5,7,-1,9,11,13,15,17,19,21,23,-1,25,27,-1,-1,-1,29,31,-1,-1,-1,-1,-1,-1,-1,-1,-1,-1,-1],"loss_changes":[5.894178E3,3.3432979E3,0E0,9.38855E1,5.5224365E1,0E0,2.826416E1,5.385132E0,3.719638E1,9.906982E0,1.1119743E1,3.6244736E0,6.879883E-1,4.6098824E0,0E0,8.5560104E1,1.2939453E-2,0E0,0E0,0E0,1.1192324E0,2.1885849E1,0E0,0E0,0E0,0E0,0E0,0E0,0E0,0E0,0E0,0E0,0E0],"parents":[2147483647,0,0,1,1,3,3,4,4,6,6,7,7,8,8,9,9,10,10,11,11,12,12,13,13,15,15,16,16,20,20,21,21],"right_children":[2,4,-1,6,8,-1,10,12,14,16,18,20,22,24,-1,26,28,-1,-1,-1,30,32,-1,-1,-1,-1,-1,-1,-1,-1,-1,-1,-1],"split_conditions":[2.73E2,1.0651717E0,-5.4727238E-2,3.2E1,1.68E2,-5.4125447E-2,2.006267E6,1.4438859E0,1.9E2,6E0,2.4E2,3.2E1,1.1906923E1,2.894356E3,-5.4464113E-2,6.9581753E-1,7.405952E-1,6.524967E-2,-5.342561E-2,-5.0239515E-2,2.4E2,6E0,-5.472058E-2,6.0080945E-2,-4.385437E-2,-8.942858E-2,5.9144355E-2,6.0485717E-2,3.597503E-2,5.7301205E-2,2.5435297E-3,-5.3341847E-2,9.311253E-2],"split_indices":[5,1,0,3,2,0,7,1,2,0,8,3,1,1,0,1,1,0,0,0,8,0,0,0,0,0,0,0,0,0,0,0,0],"split_type":[0,0,0,0,0,0,0,0,0,0,0,0,0,0,0,0,0,0,0,0,0,0,0,0,0,0,0,0,0,0,0,0,0],"sum_hessian":[3.1704754E4,1.4821608E4,1.6883145E4,1.1175944E4,3.6456638E3,7.240021E1,1.1103545E4,3.5158362E3,1.298276E2,1.1063611E4,3.993335E1,2.5829016E1,3.4900073E3,7.981476E1,5.0012844E1,4.4677225E2,1.0616839E4,9.629425E0,3.0303923E1,1.0659993E1,1.5169023E1,3.6733957E2,3.1226677E3,7.599005E1,3.8247097E0,4.1965954E1,4.048063E2,1.0611533E4,5.306044E0,4.984223E0,1.01848E1,3.577175E2,9.622047E0],"tree_param":{"num_deleted":"0","num_feature":"10","num_nodes":"33","size_leaf_vector":"1"}},{"base_weights":[-1.4637543E-1,-5.42713E-1,5.9314277E-2,-5.4274686E-2,2.008284E-3],"categories":[],"categories_nodes":[],"categories_segments":[],"categories_sizes":[],"default_left":[0,0,0,0,0],"id":48,"left_children":[1,3,-1,-1,-1],"loss_changes":[8.509288E3,3.7158203E-1,0E0,0E0,0E0],"parents":[2147483647,0,0,1,1],"right_children":[2,4,-1,-1,-1],"split_conditions":[2E1,1.5E1,5.9314277E-2,-5.4274686E-2,2.008284E-3],"split_indices":[4,6,0,0,0],"split_type":[0,0,0,0,0],"sum_hessian":[2.903005E4,1.8900682E4,1.0129369E4,1.8899578E4,1.1020681E0],"tree_param":{"num_deleted":"0","num_feature":"10","num_nodes":"5","size_leaf_vector":"1"}},{"base_weights":[2.357934E-1,4.5690605E-1,-4.382649E-1,5.618798E-1,-5.4237813E-2,-5.4005337E-1,-8.581481E-2,3.6919758E-1,5.930792E-2,-5.4254066E-2,-4.6316245E-1,5.6120557E-1,-5.4216076E-2,5.615945E-1,-3.698823E-1,-4.0657934E-2,-5.3982254E-2,-5.2028336E-2,5.9244223E-2,5.9045887E-1,-5.2274495E-1,-4.7137237E-1,2.1076587E-1,5.7047695E-2,-5.1878847E-2,5.9280824E-2,4.9011216E-2,-5.4919105E-2,3.811612E-2,-4.941694E-2,7.208062E-2,7.831385E-2,-4.4533502E-2],"categories":[],"categories_nodes":[],"categories_segments":[],"categories_sizes":[],"default_left":[0,0,0,0,0,0,0,0,0,0,0,0,0,0,0,0,0,0,0,0,0,0,0,0,0,0,0,0,0,0,0,0,0],"id":49,"left_children":[1,3,5,7,-1,9,11,13,-1,-1,15,17,-1,19,21,23,-1,-1,-1,25,27,29,31,-1,-1,-1,-1,-1,-1,-1,-1,-1,-1],"loss_changes":[5.294379E3,2.8061045E3,3.1474048E2,1.4529443E2,0E0,1.0507812E0,5.812153E2,4.8024216E2,0E0,0E0,7.1090355E0,2.7813812E1,0E0,8.415686E1,4.1225777E1,1.049198E1,0E0,0E0,0E0,3.248291E-1,1.8825111E0,1.6509827E1,3.9601112E1,0E0,0E0,0E0,0E0,0E0,0E0,0E0,0E0,0E0,0E0],"parents":[2147483647,0,0,1,1,2,2,3,3,5,5,6,6,7,7,10,10,11,11,13,13,14,14,15,15,19,19,20,20,21,21,22,22],"right_children":[2,4,6,8,-1,10,12,14,-1,-1,16,18,-1,20,22,24,-1,-1,-1,26,28,30,32,-1,-1,-1,-1,-1,-1,-1,-1,-1,-1],"split_conditions":[4E0,2E1,1.194E3,2.73E2,-5.4237813E-2,1.094E3,1.5469878E1,4.17E2,5.930792E-2,-5.4254066E-2,5E0,1.9E2,-5.4216076E-2,6E0,9.99401E5,7.9452333E0,-5.3982254E-2,-5.2028336E-2,5.9244223E-2,2.006267E6,1.9E2,1.9E2,6.9581753E-1,5.7047695E-2,-5.1878847E-2,5.9280824E-2,4.9011216E-2,-5.4919105E-2,3.811612E-2,-4.941694E-2,7.208062E-2,7.831385E-2,-4.4533502E-2],"split_indices":[6,4,0,5,0,0,1,8,0,0,6,2,0,0,7,1,0,0,0,7,2,2,1,0,0,0,0,0,0,0,0,0,0],"split_type":[0,0,0,0,0,0,0,0,0,0,0,0,0,0,0,0,0,0,0,0,0,0,0,0,0,0,0,0,0,0,0,0,0],"sum_hessian":[3.552019E4,2.674673E4,8.77346E3,2.420451E4,2.542221E3,6.8070376E3,1.9664218E3,3.3748486E3,2.082966E4,6.5878726E3,2.1916536E2,8.132057E2,1.1532162E3,2.677963E3,6.968858E2,3.389372E1,1.8527164E2,2.238895E1,7.908167E2,2.6089695E3,6.899353E1,5.933617E2,1.0352406E2,1.4792791E1,1.910093E1,2.544488E3,6.448127E1,6.74136E1,1.5799344E0,5.828028E2,1.0558948E1,5.518653E1,4.8337532E1],"tree_param":{"num_deleted":"0","num_feature":"10","num_nodes":"33","size_leaf_vector":"1"}},{"base_weights":[-1.4148444E-1,3.1152087E-1,-5.425622E-2,5.767685E-1,-5.095161E-1,-5.3602576E-2,5.840254E-1,-5.3309286E-1,1.2264798E-1,5.898133E-1,1.5868567E-1,-7.5964965E-2,-5.36559E-1,5.3507197E-1,-5.3866863E-2,5.9054166E-1,2.2348639E-2,-4.120207E-1,5.6271344E-1,-4.9440246E-2,2.1847117E-1,-3.5750544E-1,-5.38151E-1,5.887344E-2,-4.2770043E-2,5.9074964E-2,-4.8508268E-2,-5.8894135E-2,5.3148013E-2,6.3932076E-2,-6.54404E-2,-5.5071272E-2,6.006513E-2,5.5511802E-2,2.022606E-3,-5.1984858E-2,-1.1174938E-3,-4.963603E-2,-5.4247655E-2],"categories":[],"categories_nodes":[],"categories_segments":[],"categories_sizes":[],"default_left":[0,0,0,0,0,0,0,0,0,0,0,0,0,0,0,0,0,0,0,0,0,0,0,0,0,0,0,0,0,0,0,0,0,0,0,0,0,0,0],"id":50,"left_children":[1,3,-1,5,7,-1,9,11,13,15,17,19,21,23,-1,25,27,29,31,-1,33,35,37,-1,-1,-1,-1,-1,-1,-1,-1,-1,-1,-1,-1,-1,-1,-1,-1],"loss_changes":[5.2989595E3,2.9829822E3,0E0,8.390991E1,4.991754E1,0E0,2.5228271E1,5.0686646E0,3.3310062E1,4.180908E0,3.2387177E1,3.241319E0,7.199707E-1,4.1303024E0,0E0,2.5534668E0,4.6848564E0,1.5295411E1,3.7976227E0,0E0,1.0313258E0,1.7475026E0,3.0371094E-1,0E0,0E0,0E0,0E0,0E0,0E0,0E0,0E0,0E0,0E0,0E0,0E0,0E0,0E0,0E0,0E0],"parents":[2147483647,0,0,1,1,3,3,4,4,6,6,7,7,8,8,9,9,10,10,11,11,12,12,13,13,15,15,16,16,17,17,18,18,20,20,21,21,22,22],"right_children":[2,4,-1,6,8,-1,10,12,14,16,18,20,22,24,-1,26,28,30,32,-1,34,36,38,-1,-1,-1,-1,-1,-1,-1,-1,-1,-1,-1,-1,-1,-1,-1,-1],"split_conditions":[2.73E2,1.0651717E0,-5.425622E-2,3.2E1,1.68E2,-5.3602576E-2,9.99401E5,1.4438859E0,1.9E2,4.4E1,9.479266E-1,3.2E1,2.143134E0,2.894356E3,-5.3866863E-2,2E1,6E0,2.4E2,4.01E2,-4.9440246E-2,2.4E2,3.2E1,1.1906923E1,5.887344E-2,-4.2770043E-2,5.9074964E-2,-4.8508268E-2,-5.8894135E-2,5.3148013E-2,6.3932076E-2,-6.54404E-2,-5.5071272E-2,6.006513E-2,5.5511802E-2,2.022606E-3,-5.1984858E-2,-1.1174938E-3,-4.963603E-2,-5.4247655E-2],"split_indices":[5,1,0,3,2,0,7,1,2,3,1,3,1,1,0,4,0,8,8,0,8,3,1,0,0,0,0,0,0,0,0,0,0,0,0,0,0,0,0],"split_type":[0,0,0,0,0,0,0,0,0,0,0,0,0,0,0,0,0,0,0,0,0,0,0,0,0,0,0,0,0,0,0,0,0,0,0,0,0,0,0],"sum_hessian":[2.9162854E4,1.3694992E4,1.5467861E4,1.035119E4,3.3438018E3,6.6593285E1,1.0284598E4,3.2237285E3,1.2007317E2,1.0146144E4,1.3845338E2,2.4432035E1,3.1992966E3,7.407062E1,4.6002556E1,1.0133097E4,1.304713E1,5.738079E1,8.107259E1,9.810586E0,1.4621449E1,3.0184183E1,3.1691123E3,7.052807E1,3.5425482E0,1.0131589E4,1.5082226E0,5.857523E0,7.1896067E0,1.0443649E1,4.693714E1,2.2260127E0,7.884658E1,4.7519093E0,9.869541E0,2.0209784E1,9.974399E0,3.0810556E2,2.8610068E3],"tree_param":{"num_deleted":"0","num_feature":"10","num_nodes":"39","size_leaf_vector":"1"}},{"base_weights":[-1.448116E-1,-5.3849316E-1,5.8313858E-2,-5.3852923E-2,2.0708663E-3],"categories":[],"categories_nodes":[],"categories_segments":[],"categories_sizes":[],"default_left":[0,0,0,0,0],"id":51,"left_children":[1,3,-1,-1,-1],"loss_changes":[7.6389634E3,3.5986328E-1,0E0,0E0,0E0],"parents":[2147483647,0,0,1,1],"right_children":[2,4,-1,-1,-1],"split_conditions":[2E1,1.5E1,5.8313858E-2,-5.3852923E-2,2.0708663E-3],"split_indices":[4,6,0,0,0],"split_type":[0,0,0,0,0],"sum_hessian":[2.6653459E4,1.729853E4,9.354929E3,1.7297451E4,1.0791937E0],"tree_param":{"num_deleted":"0","num_feature":"10","num_nodes":"5","size_leaf_vector":"1"}},{"base_weights":[2.3245074E-1,4.4959962E-1,-4.3448517E-1,5.5239767E-1,-5.3813946E-2,-5.3582394E-1,-8.484008E-2,3.6313903E-1,5.8308125E-2,-5.3831574E-2,-4.587366E-1,5.517567E-1,-5.379012E-2,5.5164766E-1,-3.6074406E-1,-3.9621476E-2,-5.353557E-2,-5.142647E-2,5.823941E-2,5.8014256E-1,-5.190024E-1,-4.616484E-1,2.0835154E-1,5.57094E-2,-5.122767E-2,5.826617E-2,4.7413785E-2,-5.4567374E-2,3.6621865E-2,-4.8460517E-2,6.9353685E-2,7.612971E-2,-4.319989E-2],"categories":[],"categories_nodes":[],"categories_segments":[],"categories_sizes":[],"default_left":[0,0,0,0,0,0,0,0,0,0,0,0,0,0,0,0,0,0,0,0,0,0,0,0,0,0,0,0,0,0,0,0,0],"id":52,"left_children":[1,3,5,7,-1,9,11,13,-1,-1,15,17,-1,19,21,23,-1,-1,-1,25,27,29,31,-1,-1,-1,-1,-1,-1,-1,-1,-1,-1],"loss_changes":[4.73897E3,2.5066963E3,2.847406E2,1.2962451E2,0E0,9.498291E-1,5.2153595E2,4.2619058E2,0E0,0E0,6.4613E0,2.4857147E1,0E0,7.5875E1,3.7168816E1,9.38977E0,0E0,0E0,0E0,3.6828613E-1,1.7285328E0,1.4886551E1,3.4999393E1,0E0,0E0,0E0,0E0,0E0,0E0,0E0,0E0,0E0,0E0],"parents":[2147483647,0,0,1,1,2,2,3,3,5,5,6,6,7,7,10,10,11,11,13,13,14,14,15,15,19,19,20,20,21,21,22,22],"right_children":[2,4,6,8,-1,10,12,14,-1,-1,16,18,-1,20,22,24,-1,-1,-1,26,28,30,32,-1,-1,-1,-1,-1,-1,-1,-1,-1,-1],"split_conditions":[4E0,2E1,1.194E3,2.73E2,-5.3813946E-2,1.094E3,1.5469878E1,4.17E2,5.8308125E-2,-5.3831574E-2,5E0,1.9E2,-5.379012E-2,6E0,9.99401E5,7.9452333E0,-5.353557E-2,-5.142647E-2,5.823941E-2,2.006267E6,1.9E2,1.9E2,6.9581753E-1,5.57094E-2,-5.122767E-2,5.826617E-2,4.7413785E-2,-5.4567374E-2,3.6621865E-2,-4.8460517E-2,6.9353685E-2,7.612971E-2,-4.319989E-2],"split_indices":[6,4,0,5,0,0,1,8,0,0,6,2,0,0,7,1,0,0,0,7,2,2,1,0,0,0,0,0,0,0,0,0,0],"split_type":[0,0,0,0,0,0,0,0,0,0,0,0,0,0,0,0,0,0,0,0,0,0,0,0,0,0,0,0,0,0,0,0,0],"sum_hessian":[3.2719836E4,2.4683436E4,8.0364E3,2.2357084E4,2.3263513E3,6.2301597E3,1.8062402E3,3.120773E3,1.923631E4,6.029289E3,2.0087054E2,7.509132E2,1.055327E3,2.476181E3,6.4459204E2,3.128039E1,1.6959015E2,2.0537323E1,7.3037585E2,2.4124333E3,6.3747658E1,5.4767456E2,9.691747E1,1.3746778E1,1.7533613E1,2.352042E3,6.0391224E1,6.2255497E1,1.4921604E0,5.37572E2,1.0102562E1,5.1906815E1,4.5010654E1],"tree_param":{"num_deleted":"0","num_feature":"10","num_nodes":"33","size_leaf_vector":"1"}},{"base_weights":[-1.3985096E-1,3.0669102E-1,-5.383376E-2,5.666081E-1,-5.0474036E-1,-5.312326E-2,5.737326E-1,-5.2825963E-1,1.2102966E-1,5.7947767E-1,1.5629588E-1,-7.2083555E-2,-5.318307E-1,5.2520883E-1,-5.329145E-2,4.5913664E-1,5.8334494E-1,-3.9793462E-1,5.487906E-1,-4.8661258E-2,2.0810181E-1,-4.765852E-1,-5.382324E-2,5.780657E-2,-4.1698556E-2,-9.280119E-2,5.650812E-2,5.8344662E-2,3.17747E-2,6.305004E-2,-6.4284325E-2,-5.2634556E-2,5.8695145E-2,5.3875603E-2,1.5496579E-3,-5.220125E-2,8.630073E-2],"categories":[],"categories_nodes":[],"categories_segments":[],"categories_sizes":[],"default_left":[0,0,0,0,0,0,0,0,0,0,0,0,0,0,0,0,0,0,0,0,0,0,0,0,0,0,0,0,0,0,0,0,0,0,0,0,0],"id":53,"left_children":[1,3,-1,5,7,-1,9,11,13,15,17,19,21,23,-1,25,27,29,31,-1,33,35,-1,-1,-1,-1,-1,-1,-1,-1,-1,-1,-1,-1,-1,-1,-1],"loss_changes":[4.76657E3,2.6644785E3,0E0,7.5142334E1,4.517639E1,0E0,2.2708496E1,4.774414E0,2.984159E1,4.0964355E0,2.8591772E1,2.9008992E0,7.8009033E-1,3.7085266E0,0E0,4.4121944E1,5.9570312E-2,1.4171336E1,3.4589977E0,0E0,9.522517E-1,1.9505234E1,0E0,0E0,0E0,0E0,0E0,0E0,0E0,0E0,0E0,0E0,0E0,0E0,0E0,0E0,0E0],"parents":[2147483647,0,0,1,1,3,3,4,4,6,6,7,7,8,8,9,9,10,10,11,11,12,12,13,13,15,15,16,16,17,17,18,18,20,20,21,21],"right_children":[2,4,-1,6,8,-1,10,12,14,16,18,20,22,24,-1,26,28,30,32,-1,34,36,-1,-1,-1,-1,-1,-1,-1,-1,-1,-1,-1,-1,-1,-1,-1],"split_conditions":[2.73E2,1.0651717E0,-5.383376E-2,3.2E1,1.68E2,-5.312326E-2,9.99401E5,1.4438859E0,1.9E2,6E0,9.479266E-1,3.2E1,1.1906923E1,2.894356E3,-5.329145E-2,6.9581753E-1,7.405952E-1,2.4E2,4.01E2,-4.8661258E-2,2.4E2,6E0,-5.382324E-2,5.780657E-2,-4.1698556E-2,-9.280119E-2,5.650812E-2,5.8344662E-2,3.17747E-2,6.305004E-2,-6.4284325E-2,-5.2634556E-2,5.8695145E-2,5.3875603E-2,1.5496579E-3,-5.220125E-2,8.630073E-2],"split_indices":[5,1,0,3,2,0,7,1,2,0,1,3,1,1,0,1,1,8,8,0,8,0,0,0,0,0,0,0,0,0,0,0,0,0,0,0,0],"split_type":[0,0,0,0,0,0,0,0,0,0,0,0,0,0,0,0,0,0,0,0,0,0,0,0,0,0,0,0,0,0,0,0,0,0,0,0,0],"sum_hessian":[2.6785428E4,1.2631202E4,1.4154226E4,9.567008E3,3.064194E3,6.1211506E1,9.505796E3,2.9533496E3,1.1084455E2,9.376363E3,1.2943285E2,2.3104654E1,2.9302449E3,6.862611E1,4.2218445E1,2.9566098E2,9.080702E3,5.3654713E1,7.577814E1,9.021202E0,1.4083452E1,3.121219E2,2.618123E3,6.534664E1,3.279461E0,2.0428467E1,2.752325E2,9.07603E3,4.672496E0,1.0016864E1,4.3637848E1,2.1589668E0,7.361917E1,4.522414E0,9.561038E0,3.0247488E2,9.646987E0],"tree_param":{"num_deleted":"0","num_feature":"10","num_nodes":"37","size_leaf_vector":"1"}},{"base_weights":[-1.4340942E-1,-5.347028E-1,5.7431914E-2,-5.3474125E-2,2.1281424E-3],"categories":[],"categories_nodes":[],"categories_segments":[],"categories_sizes":[],"default_left":[0,0,0,0,0],"id":54,"left_children":[1,3,-1,-1,-1],"loss_changes":[6.863347E3,3.5009766E-1,0E0,0E0,0E0],"parents":[2147483647,0,0,1,1],"right_children":[2,4,-1,-1,-1],"split_conditions":[2E1,1.5E1,5.7431914E-2,-5.3474125E-2,2.1281424E-3],"split_indices":[4,6,0,0,0],"split_type":[0,0,0,0,0],"sum_hessian":[2.4436336E4,1.5814691E4,8.621645E3,1.5813636E4,1.0557411E0],"tree_param":{"num_deleted":"0","num_feature":"10","num_nodes":"5","size_leaf_vector":"1"}},{"base_weights":[2.2947502E-1,4.4309253E-1,-4.310794E-1,5.439722E-1,-5.343312E-2,-5.32018E-1,-8.3971575E-2,3.5741353E-1,5.742618E-2,-5.3451516E-2,-4.5469227E-1,5.43402E-1,-5.3406965E-2,5.429142E-1,-3.5284656E-1,-3.865774E-2,-5.3129327E-2,-5.0848812E-2,5.7351876E-2,5.7095474E-1,-5.134793E-1,-4.5324278E-1,2.0577678E-1,5.4480564E-2,-5.0602507E-2,5.7465535E-2,4.8431437E-2,-5.404551E-2,3.5196494E-2,-4.763226E-2,6.692907E-2,7.409093E-2,-4.1892316E-2],"categories":[],"categories_nodes":[],"categories_segments":[],"categories_sizes":[],"default_left":[0,0,0,0,0,0,0,0,0,0,0,0,0,0,0,0,0,0,0,0,0,0,0,0,0,0,0,0,0,0,0,0,0],"id":55,"left_children":[1,3,5,7,-1,9,11,13,-1,-1,15,17,-1,19,21,23,-1,-1,-1,25,27,29,31,-1,-1,-1,-1,-1,-1,-1,-1,-1,-1],"loss_changes":[4.2456704E3,2.2420513E3,2.575713E2,1.1625098E2,0E0,8.569336E-1,4.6838113E2,3.798159E2,0E0,0E0,5.8717422E0,2.2244308E1,0E0,6.797986E1,3.35915E1,8.409484E0,0E0,0E0,0E0,4.3548584E-1,1.5819054E0,1.344397E1,3.0958763E1,0E0,0E0,0E0,0E0,0E0,0E0,0E0,0E0,0E0,0E0],"parents":[2147483647,0,0,1,1,2,2,3,3,5,5,6,6,7,7,10,10,11,11,13,13,14,14,15,15,19,19,20,20,21,21,22,22],"right_children":[2,4,6,8,-1,10,12,14,-1,-1,16,18,-1,20,22,24,-1,-1,-1,26,28,30,32,-1,-1,-1,-1,-1,-1,-1,-1,-1,-1],"split_conditions":[4E0,2E1,1.194E3,2.73E2,-5.343312E-2,1.094E3,1.5469878E1,4.17E2,5.742618E-2,-5.3451516E-2,5E0,1.9E2,-5.3406965E-2,6E0,9.99401E5,7.9452333E0,-5.3129327E-2,-5.0848812E-2,5.7351876E-2,9.99401E5,1.9E2,1.9E2,6.9581753E-1,5.4480564E-2,-5.0602507E-2,5.7465535E-2,4.8431437E-2,-5.404551E-2,3.5196494E-2,-4.763226E-2,6.692907E-2,7.409093E-2,-4.1892316E-2],"split_indices":[6,4,0,5,0,0,1,8,0,0,6,2,0,0,7,1,0,0,0,7,2,2,1,0,0,0,0,0,0,0,0,0,0],"split_type":[0,0,0,0,0,0,0,0,0,0,0,0,0,0,0,0,0,0,0,0,0,0,0,0,0,0,0,0,0,0,0,0,0],"sum_hessian":[3.0086172E4,2.2734396E4,7.3517754E3,2.0607902E4,2.126494E3,5.6951104E3,1.656665E3,2.8803171E3,1.7727586E4,5.511218E3,1.8389246E2,6.919611E2,9.64704E2,2.2840269E3,5.962903E2,2.882782E1,1.5506464E2,1.881803E1,6.7314307E2,2.2254158E3,5.8611153E1,5.0561023E2,9.068002E1,1.2747765E1,1.6080055E1,2.128855E3,9.65609E1,5.720364E1,1.4075123E0,4.959882E2,9.622062E0,4.8741173E1,4.1938847E1],"tree_param":{"num_deleted":"0","num_feature":"10","num_nodes":"33","size_leaf_vector":"1"}},{"base_weights":[-1.3838999E-1,3.024433E-1,-5.3454537E-2,5.576761E-1,-5.0048363E-1,-5.2680165E-2,5.6469077E-1,-5.239684E-1,1.19647756E-1,5.704099E-1,1.5430269E-1,-6.836525E-2,-5.2765477E-1,5.163456E-1,-5.275466E-2,4.447112E-1,5.744876E-1,-3.8376427E-1,5.360965E-1,-4.789612E-2,1.9838418E-1,-4.6957615E-1,-5.3441998E-2,5.685378E-2,-4.063605E-2,-9.195473E-2,5.5423405E-2,5.745965E-2,3.0063665E-2,6.2246826E-2,-6.314357E-2,-5.0376404E-2,5.7450186E-2,5.237059E-2,1.1030498E-3,-5.1655468E-2,8.018811E-2],"categories":[],"categories_nodes":[],"categories_segments":[],"categories_sizes":[],"default_left":[0,0,0,0,0,0,0,0,0,0,0,0,0,0,0,0,0,0,0,0,0,0,0,0,0,0,0,0,0,0,0,0,0,0,0,0,0],"id":56,"left_children":[1,3,-1,5,7,-1,9,11,13,15,17,19,21,23,-1,25,27,29,31,-1,33,35,-1,-1,-1,-1,-1,-1,-1,-1,-1,-1,-1,-1,-1,-1,-1],"loss_changes":[4.2903545E3,2.3832527E3,0E0,6.742212E1,4.091748E1,0E0,2.048999E1,4.503845E0,2.6761538E1,4.176758E0,2.5242548E1,2.5971162E0,8.0255127E-1,3.335867E0,0E0,4.176649E1,7.6416016E-2,1.3144803E1,3.1531239E0,0E0,8.8136774E-1,1.761533E1,0E0,0E0,0E0,0E0,0E0,0E0,0E0,0E0,0E0,0E0,0E0,0E0,0E0,0E0,0E0],"parents":[2147483647,0,0,1,1,3,3,4,4,6,6,7,7,8,8,9,9,10,10,11,11,12,12,13,13,15,15,16,16,17,17,18,18,20,20,21,21],"right_children":[2,4,-1,6,8,-1,10,12,14,16,18,20,22,24,-1,26,28,30,32,-1,34,36,-1,-1,-1,-1,-1,-1,-1,-1,-1,-1,-1,-1,-1,-1,-1],"split_conditions":[2.73E2,1.0651717E0,-5.3454537E-2,3.2E1,1.68E2,-5.2680165E-2,9.99401E5,1.4438859E0,1.9E2,6E0,9.479266E-1,3.2E1,1.1906923E1,2.894356E3,-5.275466E-2,6.9581753E-1,7.405952E-1,2.4E2,4.01E2,-4.789612E-2,2.4E2,6E0,-5.3441998E-2,5.685378E-2,-4.063605E-2,-9.195473E-2,5.5423405E-2,5.745965E-2,3.0063665E-2,6.2246826E-2,-6.314357E-2,-5.0376404E-2,5.7450186E-2,5.237059E-2,1.1030498E-3,-5.1655468E-2,8.018811E-2],"split_indices":[5,1,0,3,2,0,7,1,2,0,1,3,1,1,0,1,1,8,8,0,8,0,0,0,0,0,0,0,0,0,0,0,0,0,0,0,0],"split_type":[0,0,0,0,0,0,0,0,0,0,0,0,0,0,0,0,0,0,0,0,0,0,0,0,0,0,0,0,0,0,0,0,0,0,0,0,0],